svm_type c_svc
kernel_type rbf
gamma 0.00392157
nr_class 2
total_sv 29
rho -0.985921
label 1 -1
nr_sv 14 15
SV
1 1:0.99088 3:0.974168 4:0.965451 5:0.968794 6:0.960313 7:0.958674 8:0.952783 9:0.950746 10:0.959869 11:0.959757 12:0.958374 13:0.965676 14:0.968858 15:0.970399 16:0.979513 17:0.979368 18:0.977895 19:0.982299 20:0.989257 21:0.989431 22:0.989384 23:0.988322 24:0.988631 25:0.989211 26:0.989091 27:0.988229 28:0.988507 29:0.98962 30:0.988745 31:0.98983 32:0.987904 33:0.987105 34:0.988898 35:0.989798 36:0.986631 37:0.989826 38:0.988752 39:0.986194 40:0.978103 41:0.989615 42:0.989901 43:0.99025 44:0.862635 45:0.977729 46:0.979163 47:0.980178 48:0.980205 49:0.960226 50:0.966638 51:0.89994 52:0.931312 53:0.720165 54:-0.681038 55:-1 56:-0.958963 57:-1 58:-0.999424 59:-1 60:-1 61:-0.995477 62:-0.855375 63:-0.975949 64:-0.979313 65:-0.968549 66:-0.970878 67:-0.96789 68:-0.966737 69:-0.957893 70:-0.949798 71:-0.960531 72:-0.962897 73:-0.941652 74:-0.924921 75:-0.921621 76:-0.904453 77:-0.899744 78:-0.89389 79:-0.884623 80:-0.874192 81:-0.864703 82:-0.845168 83:-0.825359 84:-0.814389 85:-0.789848 86:-0.739161 87:-0.745794 88:-0.753258 89:-0.753227 90:-0.748384 91:-0.737483 92:-0.707755 93:-0.665709 94:-0.619984 95:-0.563876 96:-0.534882 97:-0.489995 98:-0.430893 99:-0.362938 100:-0.28538 101:-0.171737 102:-0.0436603 103:0.0887793 104:0.169781 105:0.311247 106:0.449559 107:0.640313 108:0.6976 109:0.830873 110:0.962798 111:1 112:1 113:1 114:1 115:0.997233 116:1 117:0.950385 118:0.967499 119:0.93829 120:0.891759 121:0.861872 122:0.835322 123:0.806753 124:0.785482 125:0.755635 126:0.707768 127:0.643464 128:0.614744 129:0.563534 130:0.507273 131:0.479319 132:0.418233 133:0.362606 134:0.316509 135:0.257351 136:0.203224 137:0.0301218 138:-0.0250198 139:-0.0765541 140:-0.0312752 141:-0.0985437 142:-0.14871 143:-0.0831137 144:0.0864576 145:0.11174 146:0.00239631 147:-0.161147 148:-0.127028 149:-0.105518 150:-0.0381996 151:0.0162728 152:0.223163 153:0.393438 154:0.278831 155:0.392002 156:0.471088 157:0.482187 158:0.453713 159:0.428551 160:0.387616 161:0.362618 162:0.405452 163:0.477856 164:0.560101 165:0.360244 166:0.329441 167:0.691758 168:0.775072 169:0.747495 170:0.705722 171:0.673475 172:0.334242 173:-0.201099 174:-0.216323 175:0.0681683 176:0.168813 177:0.18379 178:0.189507 179:0.164156 180:0.18083 181:0.166842 182:0.105325 183:0.0523004 184:-0.0360334 185:-0.120903 186:-0.217178 187:-0.256635 188:-0.197463 189:-0.0525181 190:0.0797553 191:0.0922411 192:0.0564378 193:0.00233846 194:-0.141551 195:-0.382683 196:-0.499634 197:-0.476567 198:-0.455054 199:-0.530693 200:-0.59024 201:-0.665752 202:-0.761387 203:-0.855484 204:-0.923355 205:-0.992107 206:-1 207:-0.909781 208:-0.665787 209:-0.418537 210:-0.406752 211:-0.414619 212:-0.290645 213:-0.343605 214:-0.439117 215:-0.465518 216:-0.458749 217:-0.513854 218:-0.627429 219:-0.806633 220:-0.792268 221:-0.545317 222:-0.580108 223:-0.851584 224:-1 225:-1 226:-1 227:-0.787625 228:-0.457118 229:-0.199378 230:-0.0571456 231:-0.0704268 232:-0.0795657 233:-0.0672478 234:-0.0404298 235:-0.0110146 236:-0.00344796 237:0.0777221 238:0.156245 239:0.0413771 240:0.00410081 241:0.00851271 242:-0.000842287 243:0.0669489 244:0.136893 245:-0.0155065 246:-0.0760497 247:0.0355862 248:0.0936141 249:0.0849055 250:0.0891683 251:0.0116811 252:-0.108265 253:-0.0905761 254:-0.173327 255:-0.352601 
1 1:0.960876 3:0.958186 4:0.95606 5:0.96526 6:0.970148 7:0.968932 8:0.968522 9:0.969575 10:0.968931 11:0.968592 12:0.971493 13:0.977403 14:0.97967 15:0.979864 16:0.979279 17:0.978488 18:0.979521 19:0.978215 20:0.9771 21:0.978371 22:0.982802 23:0.987526 24:0.989862 25:0.989341 26:0.988513 27:0.988176 28:0.989583 29:0.989538 30:0.983353 31:0.979355 32:0.976487 33:0.977281 34:0.980323 35:0.978499 36:0.968842 37:0.969793 38:0.971175 39:0.961249 40:0.934855 41:0.936784 42:0.931083 43:0.894489 44:0.724414 45:0.800396 46:0.754999 47:0.600117 48:0.37136 49:0.207563 50:0.0715822 51:-0.151049 52:-0.382503 53:-0.500672 54:-0.541458 55:-0.543123 56:-0.675884 57:-0.697108 58:-0.718443 59:-0.740059 60:-0.758072 61:-0.764548 62:-0.651265 63:-0.773734 64:-0.784253 65:-0.778373 66:-0.791447 67:-0.796296 68:-0.799295 69:-0.798848 70:-0.788063 71:-0.802479 72:-0.813334 73:-0.801717 74:-0.790029 75:-0.779597 76:-0.762511 77:-0.761076 78:-0.761921 79:-0.762124 80:-0.754315 81:-0.744744 82:-0.741256 83:-0.734473 84:-0.722386 85:-0.699059 86:-0.658783 87:-0.696364 88:-0.722774 89:-0.735512 90:-0.743458 91:-0.752053 92:-0.749339 93:-0.73454 94:-0.721733 95:-0.707775 96:-0.712022 97:-0.710618 98:-0.702574 99:-0.692649 100:-0.682644 101:-0.658918 102:-0.637108 103:-0.62513 104:-0.637504 105:-0.627858 106:-0.614286 107:-0.586774 108:-0.588688 109:-0.566872 110:-0.530999 111:-0.500019 112:-0.472377 113:-0.42915 114:-0.366141 115:-0.282118 116:-0.16234 117:-0.0226441 118:0.21114 119:0.49543 120:0.737997 121:0.910714 122:1 123:1 124:0.987408 125:0.959759 126:0.912588 127:0.86275 128:0.840356 129:0.8012 130:0.755749 131:0.746445 132:0.70118 133:0.643228 134:0.609115 135:0.580275 136:0.555655 137:0.418468 138:0.383455 139:0.331843 140:0.404138 141:0.328435 142:0.281373 143:0.310115 144:0.40884 145:0.418108 146:0.354574 147:0.26129 148:0.288887 149:0.31747 150:0.365393 151:0.405549 152:0.541144 153:0.648006 154:0.587821 155:0.658464 156:0.709005 157:0.723963 158:0.72003 159:0.716888 160:0.704471 161:0.683265 162:0.702197 163:0.742611 164:0.774175 165:0.485421 166:0.443001 167:0.82021 168:0.878254 169:0.840777 170:0.792274 171:0.768416 172:0.728149 173:0.537789 174:0.419281 175:0.558743 176:0.626369 177:0.636291 178:0.620223 179:0.590984 180:0.587404 181:0.557263 182:0.48481 183:0.40721 184:0.303605 185:0.191276 186:0.0596238 187:0.011694 188:0.102759 189:0.3158 190:0.495629 191:0.502829 192:0.479315 193:0.445734 194:0.302785 195:-0.011165 196:-0.167617 197:-0.0617945 198:0.0864324 199:-0.0685415 200:-0.48751 201:-0.886286 202:-0.901243 203:-0.671941 204:-0.401373 205:-0.228022 206:-0.167729 207:-0.112425 208:0.0385556 209:0.178757 210:0.009086 211:0.0193954 212:0.235153 213:0.189368 214:0.103947 215:0.065571 216:0.051068 217:0.00214542 218:-0.0266106 219:0.029402 220:0.330174 221:0.469781 222:0.468058 223:0.307312 224:0.142896 225:0.0277569 226:-0.0756605 227:-0.159699 228:-0.0735486 229:0.0294087 230:0.0572925 231:-0.0238069 232:-0.068636 233:-0.0804662 234:-0.063359 235:-0.0403978 236:-0.0328778 237:0.0510528 238:0.135017 239:0.0317076 240:0.00911575 241:0.016836 242:0.017195 243:0.108409 244:0.192809 245:0.0305594 246:-0.022526 247:0.110947 248:0.196149 249:0.206222 250:0.211164 251:0.121906 252:0.00461782 253:0.0211813 254:-0.0578238 255:-0.225434 
0.7487449366757432 1:-0.260494 3:-0.15595 4:-0.0586955 5:-0.0110549 6:0.0302011 7:0.103142 8:0.142017 9:0.183608 10:0.226016 11:0.247238 12:0.268629 13:0.287527 14:0.291046 15:0.298038 16:0.296098 17:0.282171 18:0.270771 19:0.261596 20:0.24537 21:0.218558 22:0.19766 23:0.170738 24:0.142245 25:0.129071 26:0.101946 27:0.111261 28:0.129465 29:0.116373 30:0.106343 31:0.104996 32:0.0979062 33:0.0940674 34:0.0959924 35:0.0964805 36:0.0949017 37:0.0957542 38:0.0960449 39:0.101348 40:0.0977829 41:0.101088 42:0.10128 43:0.107836 44:0.0436275 45:0.107087 46:0.107601 47:0.123273 48:0.120755 49:0.121028 50:0.119206 51:0.104906 52:0.085238 53:0.0718246 54:0.0408219 55:0.0378564 56:-0.0178881 57:-0.0706638 58:-0.141435 59:-0.171838 60:-0.26472 61:-0.347274 62:-0.308973 63:-0.521708 64:-0.604688 65:-0.6685 66:-0.817149 67:-0.890831 68:-0.937423 69:-0.999265 70:-1 71:-1 72:-1 73:-0.981836 74:-0.952254 75:-0.927324 76:-0.911574 77:-0.915786 78:-0.923091 79:-0.932438 80:-0.94036 81:-0.946757 82:-0.956501 83:-0.975417 84:-0.987672 85:-0.989066 86:-1 87:-1 88:-1 89:-1 90:-1 91:-1 92:-0.998896 93:-0.990716 94:-0.973884 95:-0.96152 96:-0.955652 97:-0.941028 98:-0.9336 99:-0.924904 100:-0.909591 101:-0.892464 102:-0.874007 103:-0.857218 104:-0.855768 105:-0.84915 106:-0.84261 107:-0.829584 108:-0.828445 109:-0.824539 110:-0.817327 111:-0.810081 112:-0.81148 113:-0.812322 114:-0.811174 115:-0.81118 116:-0.804215 117:-0.799314 118:-0.787157 119:-0.749459 120:-0.714244 121:-0.661073 122:-0.600129 123:-0.536712 124:-0.467967 125:-0.41679 126:-0.418745 127:-0.484679 128:-0.47013 129:-0.375788 130:-0.242483 131:-0.0763369 132:0.00556939 133:0.190682 134:0.496222 135:0.766886 136:0.978752 137:1 138:1 139:0.900192 140:0.953665 141:0.790355 142:0.669313 143:0.624184 144:0.643192 145:0.616423 146:0.551318 147:0.464874 148:0.45847 149:0.452527 150:0.470799 151:0.490284 152:0.593481 153:0.673588 154:0.606203 155:0.668061 156:0.701404 157:0.698984 158:0.676055 159:0.650272 160:0.616876 161:0.573184 162:0.578095 163:0.609523 164:0.646493 165:0.396874 166:0.346601 167:0.682141 168:0.733073 169:0.688935 170:0.631495 171:0.600254 172:0.527135 173:0.344957 174:0.270061 175:0.38979 176:0.431457 177:0.442284 178:0.424252 179:0.371033 180:0.362188 181:0.311399 182:0.206082 183:0.100564 184:-0.0643878 185:-0.27365 186:-0.570936 187:-0.870785 188:-0.606884 189:0.0890001 190:0.400717 191:0.478628 192:0.550919 193:0.580728 194:0.479113 195:0.171208 196:0.0460641 197:0.247404 198:0.504364 199:0.539852 200:0.594102 201:0.552558 202:0.499888 203:0.437677 204:0.379125 205:0.321303 206:0.273535 207:0.25611 208:0.32462 209:0.395773 210:0.143039 211:0.145115 212:0.36831 213:0.309727 214:0.225932 215:0.17822 216:0.148793 217:0.0899857 218:0.0559829 219:0.125126 220:0.443073 221:0.560292 222:0.555269 223:0.388674 224:0.202205 225:0.0740319 226:-0.0324618 227:-0.127052 228:-0.0553189 229:0.037652 230:0.0473139 231:-0.0603836 232:-0.126701 233:-0.171203 234:-0.204234 235:-0.243976 236:-0.316533 237:-0.368071 238:-0.490121 239:-0.81154 240:-0.978081 241:-0.98321 242:-0.86963 243:-0.719047 244:-0.584839 245:-0.583329 246:-0.581336 247:-0.465175 248:-0.428206 249:-0.405819 250:-0.330007 251:-0.363791 252:-0.466152 253:-0.404327 254:-0.473954 255:-0.66474 
1 1:0.545828 3:0.543718 4:0.532854 5:0.535138 6:0.531389 7:0.520528 8:0.513843 9:0.506058 10:0.495169 11:0.493184 12:0.487848 13:0.480433 14:0.471291 15:0.463096 16:0.453958 17:0.441991 18:0.433296 19:0.429724 20:0.427656 21:0.424362 22:0.421032 23:0.422901 24:0.426725 25:0.430421 26:0.432461 27:0.456241 28:0.489536 29:0.510016 30:0.517068 31:0.540141 32:0.55929 33:0.573427 34:0.598514 35:0.609287 36:0.618042 37:0.644286 38:0.657882 39:0.676257 40:0.686699 41:0.702167 42:0.724229 43:0.739095 44:0.641111 45:0.768969 46:0.779815 47:0.795466 48:0.818208 49:0.825173 50:0.837382 51:0.850274 52:0.85789 53:0.8716 54:0.883027 55:0.894159 56:0.896802 57:0.903718 58:0.915734 59:0.929543 60:0.928712 61:0.937261 62:0.956888 63:0.96817 64:0.992523 65:1 66:1 67:0.999842 68:1 69:0.932442 70:0.837266 71:0.755758 72:0.448124 73:0.141415 74:0.0103009 75:-0.209784 76:-0.337859 77:-0.383014 78:-0.459806 79:-0.486317 80:-0.493866 81:-0.513477 82:-0.517629 83:-0.510388 84:-0.50374 85:-0.47857 86:-0.40733 87:-0.47258 88:-0.52706 89:-0.561397 90:-0.577467 91:-0.586671 92:-0.582231 93:-0.56449 94:-0.546244 95:-0.523755 96:-0.530462 97:-0.534608 98:-0.525423 99:-0.512838 100:-0.506006 101:-0.47839 102:-0.452502 103:-0.433721 104:-0.448637 105:-0.435291 106:-0.421783 107:-0.386521 108:-0.395612 109:-0.373638 110:-0.348737 111:-0.343409 112:-0.327971 113:-0.302004 114:-0.273187 115:-0.235965 116:-0.178787 117:-0.127028 118:-0.0360944 119:0.0753428 120:0.213238 121:0.329383 122:0.421499 123:0.593824 124:0.782431 125:0.908269 126:0.974124 127:1 128:1 129:0.932577 130:0.849722 131:0.802452 132:0.726401 133:0.646981 134:0.588132 135:0.526678 136:0.4691 137:0.29957 138:0.245327 139:0.182621 140:0.221036 141:0.127372 142:0.0701814 143:0.109093 144:0.239488 145:0.252614 146:0.155224 147:0.0120638 148:0.0390219 149:0.0537207 150:0.100872 151:0.144884 152:0.322383 153:0.467691 154:0.361245 155:0.458247 156:0.533097 157:0.551502 158:0.523088 159:0.483351 160:0.452166 161:0.421524 162:0.458386 163:0.527536 164:0.587837 165:0.368883 166:0.338433 167:0.693829 168:0.778805 169:0.765662 170:0.723032 171:0.707866 172:0.658467 173:0.475658 174:0.382001 175:0.504609 176:0.555128 177:0.534884 178:0.461016 179:0.39824 180:-0.18712 181:-0.932872 182:-0.558387 183:-0.145192 184:-0.123376 185:-0.136339 186:-0.186081 187:-0.194044 188:-0.0954258 189:0.10382 190:0.276519 191:0.300846 192:0.298331 193:0.284587 194:0.165705 195:-0.111955 196:-0.241192 197:-0.121075 198:0.0388297 199:0.0336446 200:0.0275818 201:-0.0235571 202:-0.0764103 203:-0.144649 204:-0.208138 205:-0.251781 206:-0.253712 207:-0.210535 208:-0.0633503 209:0.0748095 210:-0.0694953 211:-0.059844 212:0.137965 213:0.0906738 214:0.00806422 215:-0.0188323 216:-0.0298555 217:-0.0829698 218:-0.12545 219:-0.109352 220:0.14557 221:0.314906 222:0.324901 223:0.159801 224:0.0129787 225:-0.0892432 226:-0.221887 227:-0.334752 228:-0.266383 229:-0.183024 230:-0.169027 231:-0.249452 232:-0.305589 233:-0.339958 234:-0.355196 235:-0.372718 236:-0.413044 237:-0.416546 238:-0.438817 239:-0.617543 240:-0.734188 241:-0.843147 242:-0.945919 243:-1 244:-1 245:-1 246:-1 247:-0.893856 248:-0.871653 249:-0.826065 250:-0.691311 251:-0.670966 252:-0.734704 253:-0.622739 254:-0.663722 255:-0.82659 
1 1:0.267584 3:0.330882 4:0.352108 5:0.383217 6:0.416723 7:0.448815 8:0.491948 9:0.535699 10:0.572452 11:0.604632 12:0.636742 13:0.679395 14:0.702462 15:0.746191 16:0.768406 17:0.792563 18:0.822625 19:0.838003 20:0.864034 21:0.873018 22:0.888809 23:0.899954 24:0.907011 25:0.917124 26:0.924236 27:0.925131 28:0.926218 29:0.935085 30:0.939702 31:0.935044 32:0.926155 33:0.926431 34:0.92814 35:0.927954 36:0.932424 37:0.940347 38:0.937025 39:0.937125 40:0.937753 41:0.949313 42:0.947761 43:0.955195 44:0.842052 45:0.957684 46:0.959043 47:0.959238 48:0.958682 49:0.966254 50:0.970698 51:0.968316 52:0.970254 53:0.968562 54:0.959128 55:0.960402 56:0.960124 57:0.95411 58:0.949222 59:0.948125 60:0.938289 61:0.934337 62:0.930491 63:0.934949 64:0.927451 65:0.898585 66:0.843267 67:0.710108 68:0.586901 69:0.0025984 70:-0.435969 71:-0.722809 72:-0.951398 73:-0.95873 74:-0.990491 75:-0.999223 76:-0.988747 77:-0.995305 78:-0.998679 79:-1 80:-0.999105 81:-0.989263 82:-0.987896 83:-0.980944 84:-0.98026 85:-0.963749 86:-0.938218 87:-0.946634 88:-0.94377 89:-0.928021 90:-0.91927 91:-0.922367 92:-0.911846 93:-0.887102 94:-0.87459 95:-0.851588 96:-0.846722 97:-0.836658 98:-0.819981 99:-0.80328 100:-0.78615 101:-0.762092 102:-0.734192 103:-0.706729 104:-0.707839 105:-0.687949 106:-0.649108 107:-0.587537 108:-0.531211 109:-0.453532 110:-0.319908 111:-0.243277 112:-0.155453 113:-0.00410599 114:0.0864828 115:0.305823 116:0.437603 117:0.577388 118:0.80137 119:0.924189 120:0.97701 121:1 122:0.999333 123:0.968771 124:0.940832 125:0.889848 126:0.819979 127:0.745402 128:0.691014 129:0.617227 130:0.530479 131:0.472149 132:0.384315 133:0.293593 134:0.221574 135:0.130599 136:0.0516869 137:-0.150102 138:-0.231912 139:-0.287914 140:-0.274305 141:-0.354391 142:-0.403901 143:-0.321332 144:-0.119521 145:-0.102275 146:-0.249542 147:-0.474455 148:-0.458843 149:-0.425972 150:-0.364458 151:-0.319543 152:-0.0598375 153:0.160624 154:-0.000963361 155:0.139971 156:0.233236 157:0.246827 158:0.194451 159:0.130157 160:0.0847395 161:0.063094 162:0.15557 163:0.345323 164:0.81825 165:1 166:1 167:1 168:0.974803 169:0.911736 170:0.852757 171:0.817397 172:0.776805 173:0.594915 174:0.462314 175:0.608402 176:0.677753 177:0.702219 178:0.69735 179:0.672732 180:0.666559 181:0.627855 182:0.552948 183:0.475808 184:0.365815 185:0.235967 186:0.0902498 187:0.0385805 188:0.130191 189:0.342881 190:0.531174 191:0.539162 192:0.519726 193:0.48762 194:0.322172 195:0.00176737 196:-0.143322 197:-0.01987 198:0.11762 199:0.0635324 200:0.0193407 201:-0.0943455 202:-0.227945 203:-0.380183 204:-0.545854 205:-0.743728 206:-0.900302 207:-1 208:-1 209:-1 210:-1 211:-1 212:-0.751384 213:-0.552974 214:-0.487721 215:-0.400666 216:-0.308334 217:-0.294726 218:-0.308079 219:-0.292522 220:-0.0265323 221:0.209619 222:0.263892 223:0.135737 224:0.0167998 225:-0.0720071 226:-0.189288 227:-0.288664 228:-0.208904 229:-0.121669 230:-0.0987648 231:-0.180771 232:-0.23362 233:-0.260693 234:-0.266701 235:-0.255262 236:-0.255708 237:-0.182282 238:-0.115999 239:-0.2185 240:-0.236545 241:-0.230979 242:-0.229153 243:-0.168914 244:-0.113314 245:-0.235626 246:-0.285986 247:-0.187168 248:-0.150496 249:-0.166564 250:-0.143407 251:-0.225992 252:-0.353629 253:-0.319738 254:-0.420243 255:-0.618497 
1 1:0.181438 3:0.274137 4:0.323966 5:0.373141 6:0.410027 7:0.444969 8:0.489839 9:0.532505 10:0.555709 11:0.573923 12:0.604178 13:0.63082 14:0.649959 15:0.672134 16:0.687476 17:0.69866 18:0.713005 19:0.726142 20:0.734634 21:0.740871 22:0.746802 23:0.751425 24:0.757518 25:0.7639 26:0.769413 27:0.783827 28:0.797152 29:0.805379 30:0.812459 31:0.82296 32:0.825997 33:0.824699 34:0.832868 35:0.840884 36:0.846838 37:0.865311 38:0.87267 39:0.880078 40:0.88716 41:0.9061 42:0.912609 43:0.920406 44:0.811447 45:0.933875 46:0.942226 47:0.950143 48:0.957641 49:0.964437 50:0.972486 51:0.978928 52:0.986814 53:0.994809 54:0.999818 55:1 56:0.998909 57:1 58:0.999939 59:0.993745 60:0.972086 61:0.937443 62:0.89136 63:0.781031 64:0.557976 65:0.14823 66:-0.32665 67:-0.541546 68:-0.68823 69:-0.860954 70:-0.900669 71:-0.949457 72:-0.999047 73:-1 74:-1 75:-1 76:-0.988692 77:-0.994925 78:-1 79:-0.996694 80:-0.987852 81:-0.980168 82:-0.968359 83:-0.965154 84:-0.967217 85:-0.941726 86:-0.917905 87:-0.918951 88:-0.919435 89:-0.917684 90:-0.910228 91:-0.904975 92:-0.900194 93:-0.880447 94:-0.859738 95:-0.839583 96:-0.829959 97:-0.818827 98:-0.806022 99:-0.791438 100:-0.778021 101:-0.75255 102:-0.727117 103:-0.713925 104:-0.715129 105:-0.696099 106:-0.674661 107:-0.646953 108:-0.643701 109:-0.618258 110:-0.580384 111:-0.552326 112:-0.52733 113:-0.486912 114:-0.443741 115:-0.399908 116:-0.33319 117:-0.271415 118:-0.226644 119:-0.157675 120:-0.0578394 121:0.0602892 122:0.21045 123:0.317292 124:0.390877 125:0.509789 126:0.566001 127:0.583067 128:0.709951 129:0.816721 130:0.878889 131:0.963342 132:1 133:1 134:1 135:1 136:1 137:0.889297 138:0.843815 139:0.741891 140:0.781826 141:0.624285 142:0.507265 143:0.464938 144:0.499253 145:0.466337 146:0.35941 147:0.214263 148:0.193352 149:0.169756 150:0.170107 151:0.170917 152:0.312312 153:0.43293 154:0.296746 155:0.372947 156:0.415964 157:0.399609 158:0.335228 159:0.244074 160:0.135516 161:0.0465036 162:0.0734562 163:0.131512 164:0.183153 165:0.0921589 166:0.0761437 167:0.34112 168:0.406462 169:0.384795 170:0.314107 171:0.299522 172:0.227905 173:0.0665139 174:0.0574043 175:0.192546 176:0.250521 177:0.255751 178:0.249903 179:0.216481 180:0.206101 181:0.180191 182:0.0449095 183:-0.220663 184:-0.295578 185:-0.104147 186:0.0481189 187:0.0784008 188:0.196718 189:0.471847 190:0.71067 191:0.754592 192:0.774102 193:0.787923 194:0.669487 195:0.328582 196:0.196159 197:0.438752 198:0.766112 199:0.829952 200:0.908267 201:0.888627 202:0.855919 203:0.814579 204:0.779168 205:0.739104 206:0.68579 207:0.65267 208:0.674006 209:0.695363 210:0.346182 211:0.34785 212:0.622166 213:0.567495 214:0.480496 215:0.419642 216:0.377341 217:0.313923 218:0.311858 219:0.479603 220:0.887528 221:0.93439 222:0.91266 223:0.739604 224:0.514804 225:0.349372 226:0.27837 227:0.239016 228:0.362732 229:0.50542 230:0.529873 231:0.390293 232:0.292318 233:0.234347 234:0.217944 235:0.195798 236:0.126782 237:0.0954494 238:-0.0255207 239:-0.463373 240:-0.823149 241:-0.985882 242:-0.988208 243:-0.912656 244:-0.840526 245:-0.850269 246:-0.865775 247:-0.777946 248:-0.781828 249:-0.758977 250:-0.645655 251:-0.64835 252:-0.732166 253:-0.619031 254:-0.648634 255:-0.815029 
0.3041770872943532 1:0.517156 3:0.827412 4:0.842105 5:0.879446 6:0.887836 7:0.894164 8:0.897767 9:0.900363 10:0.90833 11:0.90923 12:0.907858 13:0.914598 14:0.918376 15:0.919315 16:0.92822 17:0.927445 18:0.931925 19:0.941593 20:0.946594 21:0.947281 22:0.96453 23:0.967748 24:0.970806 25:0.978984 26:0.978203 27:0.986723 28:0.988312 29:0.993559 30:1 31:0.999929 32:0.997952 33:0.997303 34:0.999005 35:1 36:0.996726 37:0.999817 38:1 39:0.991019 40:0.977464 41:0.989278 42:0.980486 43:0.970851 44:0.850737 45:0.965938 46:0.956716 47:0.949267 48:0.949709 49:0.943788 50:0.935135 51:0.926475 52:0.919204 53:0.910654 54:0.901636 55:0.899748 56:0.883089 57:0.86866 58:0.868796 59:0.862764 60:0.853277 61:0.848506 62:0.860563 63:0.86606 64:0.88236 65:0.882208 66:0.889269 67:0.91266 68:0.921519 69:0.926691 70:0.952676 71:0.962933 72:0.969733 73:0.972882 74:0.951191 75:0.945609 76:0.873298 77:0.794155 78:0.678632 79:0.162117 80:-0.264424 81:-0.667383 82:-0.96658 83:-0.976535 84:-1 85:-1 86:-0.999526 87:-0.996946 88:-0.98756 89:-0.978645 90:-0.971181 91:-0.971143 92:-0.96486 93:-0.949034 94:-0.937909 95:-0.917884 96:-0.910408 97:-0.901934 98:-0.884754 99:-0.869129 100:-0.862422 101:-0.835272 102:-0.81686 103:-0.813516 104:-0.810256 105:-0.800912 106:-0.79274 107:-0.777034 108:-0.772896 109:-0.757249 110:-0.74574 111:-0.738301 112:-0.732897 113:-0.721809 114:-0.709703 115:-0.697339 116:-0.673887 117:-0.652769 118:-0.612349 119:-0.537487 120:-0.463539 121:-0.37216 122:-0.245051 123:-0.105221 124:0.0502118 125:0.217758 126:0.388082 127:0.5834 128:0.823771 129:0.970093 130:1 131:1 132:0.917131 133:0.797179 134:0.694489 135:0.59744 136:0.501173 137:0.296309 138:0.206119 139:0.109273 140:0.110298 141:0.00328391 142:-0.0805213 143:-0.0515343 144:0.0919332 145:0.0983843 146:-0.0217985 147:-0.225914 148:-0.225475 149:-0.216177 150:-0.174412 151:-0.149685 152:0.0598822 153:0.236705 154:0.0630225 155:0.188307 156:0.26973 157:0.265296 158:0.19119 159:0.0918654 160:-0.00852409 161:-0.100601 162:-0.0841947 163:-0.0019526 164:0.0890732 165:0.0390611 166:0.0351369 167:0.313585 168:0.405712 169:0.387027 170:0.362507 171:0.373294 172:0.410186 173:1 174:1 175:1 176:1 177:1 178:0.985263 179:0.982687 180:0.98485 181:0.951548 182:0.881679 183:0.797218 184:0.687733 185:0.540091 186:0.361128 187:0.307404 188:0.439351 189:0.728852 190:0.964998 191:0.985817 192:0.995302 193:0.994928 194:0.846998 195:0.457267 196:0.297231 197:0.544118 198:0.870102 199:0.896359 200:0.956219 201:0.888185 202:0.811172 203:0.755682 204:0.676948 205:0.610583 206:0.550695 207:0.504935 208:0.520271 209:0.543044 210:0.225781 211:0.209735 212:0.428241 213:0.344237 214:0.22114 215:0.121062 216:0.0386037 217:-0.0998282 218:-0.294416 219:-0.618888 220:-1 221:-1 222:-1 223:-1 224:-0.841625 225:-0.741998 226:-0.85913 227:-0.952975 228:-0.858984 229:-0.754565 230:-0.673689 231:-0.630297 232:-0.590489 233:-0.549931 234:-0.496182 235:-0.446215 236:-0.415454 237:-0.32085 238:-0.227933 239:-0.308596 240:-0.305947 241:-0.297812 242:-0.307014 243:-0.253074 244:-0.20279 245:-0.331934 246:-0.406849 247:-0.340077 248:-0.34575 249:-0.377398 250:-0.349501 251:-0.418121 252:-0.550152 253:-0.50292 254:-0.585899 255:-0.791908 
0.967796032790438 1:0.86967 3:0.869943 4:0.874125 5:0.878043 6:0.88109 7:0.887153 8:0.887382 9:0.891351 10:0.900015 11:0.90841 12:0.908615 13:0.912206 14:0.918254 15:0.918109 16:0.923121 17:0.928478 18:0.927973 19:0.926043 20:0.926043 21:0.926771 22:0.926259 23:0.924573 24:0.924429 25:0.924403 26:0.92357 27:0.925236 28:0.926904 29:0.927403 30:0.932094 31:0.941695 32:0.947001 33:0.953438 34:0.962512 35:0.970703 36:0.974863 37:0.985064 38:0.991957 39:0.99629 40:0.988682 41:0.999755 42:0.99998 43:1 44:0.879207 45:0.999723 46:0.999846 47:0.99162 48:0.989431 49:0.988337 50:0.981173 51:0.97294 52:0.965792 53:0.959119 54:0.95938 55:0.95653 56:0.948098 57:0.949679 58:0.944089 59:0.935778 60:0.928066 61:0.924076 62:0.936762 63:0.946289 64:0.963393 65:0.959109 66:0.958221 67:0.975222 68:0.976759 69:0.974389 70:0.992578 71:1 72:1 73:1 74:1 75:1 76:1 77:1 78:1 79:1 80:1 81:1 82:1 83:1 84:1 85:1 86:1 87:0.587697 88:0.133074 89:-0.47497 90:-0.73955 91:-0.855885 92:-0.980981 93:-0.994059 94:-0.991264 95:-1 96:-1 97:-1 98:-0.997596 99:-0.989451 100:-0.982126 101:-0.973486 102:-0.969328 103:-0.969833 104:-0.971166 105:-0.970784 106:-0.971756 107:-0.971463 108:-0.965394 109:-0.965935 110:-0.971462 111:-0.964514 112:-0.96328 113:-0.964383 114:-0.963413 115:-0.970175 116:-0.975109 117:-0.978044 118:-0.980026 119:-0.938714 120:-0.904213 121:-0.873002 122:-0.826635 123:-0.771478 124:-0.723456 125:-0.707715 126:-0.75287 127:-0.899383 128:-1 129:-1 130:-1 131:-1 132:-0.986501 133:-0.939462 134:-0.875214 135:-0.823198 136:-0.714812 137:-0.656705 138:-0.319033 139:0.135717 140:0.69088 141:0.930644 142:1 143:0.985583 144:0.94603 145:0.896433 146:0.8407 147:0.781342 148:0.759476 149:0.745618 150:0.736149 151:0.732311 152:0.789984 153:0.838116 154:0.804764 155:0.84038 156:0.872202 157:0.870328 158:0.861051 159:0.868314 160:0.868219 161:0.851239 162:0.863435 163:0.90359 164:0.915556 165:0.560824 166:0.500801 167:0.895351 168:0.946135 169:0.905431 170:0.861516 171:0.815661 172:0.7665 173:0.578696 174:0.452853 175:0.597496 176:0.671072 177:0.685952 178:0.676273 179:0.653732 180:0.652607 181:0.628194 182:0.565238 183:0.50344 184:0.415521 185:0.307249 186:0.198185 187:0.289973 188:0.581343 189:0.635691 190:0.592217 191:0.627388 192:0.613306 193:0.593968 194:0.460976 195:0.129047 196:-0.01193 197:0.169467 198:0.405033 199:0.416222 200:0.437394 201:0.382598 202:0.339431 203:0.281095 204:0.219555 205:0.159084 206:0.125641 207:0.138727 208:0.228285 209:0.31574 210:0.09063 211:0.0860788 212:0.298624 213:0.25027 214:0.159448 215:0.105582 216:0.0743334 217:0.0115507 218:-0.0295959 219:0.00565905 220:0.27711 221:0.421716 222:0.422767 223:0.252199 224:0.0771354 225:-0.0417472 226:-0.172144 227:-0.298267 228:-0.238808 229:-0.168415 230:-0.18193 231:-0.291221 232:-0.373066 233:-0.44872 234:-0.539499 235:-0.665266 236:-0.853948 237:-1 238:-1 239:-0.961843 240:-0.831709 241:-0.727358 242:-0.65647 243:-0.567066 244:-0.485117 245:-0.537679 246:-0.563118 247:-0.460348 248:-0.429828 249:-0.408478 250:-0.326733 251:-0.348979 252:-0.433493 253:-0.352304 254:-0.395887 255:-0.549133 
1 1:0.700043 3:0.678867 4:0.676583 5:0.697419 6:0.709364 7:0.722591 8:0.74859 9:0.75726 10:0.774491 11:0.776445 12:0.793466 13:0.805631 14:0.81344 15:0.81733 16:0.819455 17:0.828079 18:0.837176 19:0.843752 20:0.842682 21:0.852089 22:0.85931 23:0.87644 24:0.881382 25:0.889413 26:0.907174 27:0.916803 28:0.928522 29:0.938849 30:0.947628 31:0.948865 32:0.953967 33:0.964498 34:0.968266 35:0.973474 36:0.977813 37:0.978941 38:0.979583 39:0.986387 40:0.978478 41:0.987553 42:0.999755 43:0.950248 44:1 45:0.409421 46:-0.851791 47:-1 48:-1 49:-1 50:-1 51:-1 52:-0.994611 53:-1 54:-1 55:-0.921415 56:-1 57:-0.990253 58:-1 59:-0.990643 60:-0.989081 61:-0.981492 62:-0.84973 63:-0.97165 64:-0.96384 65:-0.942929 66:-0.943321 67:-0.934501 68:-0.925298 69:-0.915967 70:-0.887533 71:-0.893038 72:-0.887783 73:-0.854523 74:-0.827701 75:-0.798726 76:-0.761138 77:-0.745324 78:-0.714699 79:-0.673604 80:-0.628254 81:-0.582383 82:-0.529861 83:-0.453777 84:-0.365197 85:-0.25196 86:-0.0338819 87:-0.00317247 88:0.0211009 89:0.0216451 90:0.108832 91:0.166919 92:0.320668 93:0.536719 94:0.741629 95:0.948786 96:1 97:1 98:1 99:1 100:0.976542 101:0.992395 102:1 103:1 104:0.870879 105:0.817805 106:0.763935 107:0.768148 108:0.653713 109:0.623069 110:0.619102 111:0.567294 112:0.490993 113:0.433951 114:0.391541 115:0.345922 116:0.315244 117:0.264214 118:0.239454 119:0.21516 120:0.180618 121:0.169189 122:0.16196 123:0.151332 124:0.153901 125:0.13822 126:0.0891479 127:-0.0203221 128:-0.0854335 129:-0.11701 130:-0.158211 131:-0.189119 132:-0.225808 133:-0.25676 134:-0.29672 135:-0.35678 136:-0.397087 137:-0.584092 138:-0.574752 139:-0.461156 140:-0.0875339 141:0.758146 142:0.587616 143:0.0310931 144:0.161479 145:0.142546 146:0.0298055 147:-0.137861 148:-0.102824 149:-0.0828464 150:-0.0184558 151:0.0244092 152:0.212303 153:0.378182 154:0.256798 155:0.353641 156:0.410709 157:0.409025 158:0.35077 159:0.276787 160:0.194806 161:0.102418 162:0.129195 163:0.200009 164:0.253729 165:0.135052 166:0.110008 167:0.380984 168:0.42558 169:0.385691 170:0.291223 171:0.256984 172:0.138714 173:-0.0720253 174:-0.0951188 175:-0.0273118 176:-0.0533154 177:-0.124271 178:-0.201393 179:-0.335314 180:-0.421007 181:-0.530766 182:-0.680014 183:-0.785694 184:-0.931346 185:-1 186:-1 187:-1 188:-1 189:-0.94086 190:-0.824293 191:-0.728341 192:-0.676702 193:-0.656728 194:-0.684733 195:-0.755194 196:-0.782777 197:-0.745557 198:-0.681976 199:-0.645473 200:-0.588257 201:-0.546522 202:-0.497185 203:-0.454743 204:-0.421812 205:-0.357261 206:-0.231192 207:-0.0825148 208:0.128989 209:0.316826 210:0.149895 211:0.202323 212:0.500641 213:0.490297 214:0.425385 215:0.385911 216:0.327684 217:0.236911 218:0.187929 219:0.238883 220:0.510271 221:0.563155 222:0.503395 223:0.296178 224:0.103506 225:-0.0287743 226:-0.165873 227:-0.285915 228:-0.219576 229:-0.132508 230:-0.113564 231:-0.17949 232:-0.21513 233:-0.231967 234:-0.220129 235:-0.200727 236:-0.192602 237:-0.118455 238:-0.0338113 239:-0.142365 240:-0.16367 241:-0.151493 242:-0.16174 243:-0.0945147 244:-0.0193384 245:-0.148228 246:-0.184849 247:-0.0421826 248:0.0513584 249:0.0992887 250:0.166094 251:0.146001 252:0.0924926 253:0.158384 254:0.161066 255:0.0867052 
1 1:0.967359 3:0.980149 4:0.976332 5:0.978052 6:0.981119 7:0.987398 8:0.989839 9:0.989563 10:0.989698 11:0.989929 12:0.989869 13:0.989918 14:0.988905 15:0.989086 16:0.990128 17:0.990344 18:0.982073 19:0.980655 20:0.983106 21:0.935019 22:0.971291 23:0.882831 24:0.142534 25:-0.573245 26:-0.902308 27:-1 28:-1 29:-1 30:-1 31:-1 32:-1 33:-1 34:-1 35:-1 36:-1 37:-1 38:-1 39:-1 40:-1 41:-1 42:-1 43:-1 44:-1 45:-1 46:-1 47:-0.958029 48:-0.959885 49:-0.95956 50:-0.952982 51:-0.945507 52:-0.933014 53:-0.930337 54:-0.930261 55:-0.851155 56:-0.911918 57:-0.892253 58:-0.897939 59:-0.890329 60:-0.874177 61:-0.864413 62:-0.73517 63:-0.839706 64:-0.82409 65:-0.800447 66:-0.802312 67:-0.790209 68:-0.77133 69:-0.748456 70:-0.715723 71:-0.706001 72:-0.691668 73:-0.658346 74:-0.619834 75:-0.573497 76:-0.517657 77:-0.475277 78:-0.422295 79:-0.350174 80:-0.258574 81:-0.153772 82:-0.0409819 83:0.119919 84:0.309287 85:0.546053 86:0.992967 87:1 88:1 89:1 90:1 91:1 92:1 93:1 94:1 95:1 96:0.891935 97:0.799672 98:0.735763 99:0.692458 100:0.650794 101:0.652692 102:0.653863 103:0.645046 104:0.538512 105:0.501435 106:0.45753 107:0.473335 108:0.386342 109:0.368617 110:0.371253 111:0.33495 112:0.276944 113:0.237292 114:0.209348 115:0.179799 116:0.161756 117:0.115103 118:0.0951785 119:0.0770371 120:0.0585047 121:0.054235 122:0.0518643 123:0.049718 124:0.0585321 125:0.0438315 126:-0.00798745 127:-0.112906 128:-0.183576 129:-0.213835 130:-0.254776 131:-0.284898 132:-0.319897 133:-0.35248 134:-0.386909 135:-0.444896 136:-0.516412 137:-0.739305 138:-0.794303 139:-0.799472 140:-0.809781 141:-0.856051 142:-0.895086 143:-1 144:-1 145:-1 146:-1 147:-0.966098 148:-0.807261 149:-0.727369 150:-0.581357 151:-0.489578 152:-0.18063 153:0.0775388 154:-0.0948755 155:0.0692977 156:0.178803 157:0.1936 158:0.134065 159:0.0561854 160:-0.0233006 161:-0.0983686 162:-0.0434483 163:0.0590441 164:0.160675 165:0.100194 166:0.0966598 167:0.380754 168:0.467661 169:0.459306 170:0.411444 171:0.419571 172:0.362179 173:0.198422 174:0.169386 175:0.310966 176:0.383429 177:0.405253 178:0.398501 179:0.371467 180:0.385157 181:0.368658 182:0.305773 183:0.245579 184:0.156004 185:0.0496956 186:-0.0677543 187:-0.103682 188:-0.0246012 189:0.161259 190:0.32927 191:0.334189 192:0.312082 193:0.288696 194:0.15585 195:-0.126804 196:-0.254628 197:-0.148834 198:-0.0173131 199:-0.0388207 200:-0.0498841 201:-0.107613 202:-0.149579 203:-0.176558 204:-0.187407 205:-0.183985 206:-0.10564 207:0.0866114 208:0.395966 209:0.914839 210:1 211:1 212:0.996361 213:0.797691 214:0.647254 215:0.517789 216:0.424903 217:0.328504 218:0.298464 219:0.421301 220:0.786407 221:0.826841 222:0.779441 223:0.58125 224:0.355851 225:0.191398 226:0.0771454 227:-0.0134286 228:0.0698106 229:0.171568 230:0.175801 231:0.0587097 232:-0.00996213 233:-0.0409019 234:-0.0397387 235:-0.0245931 236:-0.0167837 237:0.0590536 238:0.133822 239:0.0311019 240:0.0058065 241:0.0131811 242:0.0170101 243:0.115457 244:0.210992 245:0.0596595 246:0.0239564 247:0.177132 248:0.285792 249:0.31646 250:0.334917 251:0.259059 252:0.163122 253:0.192026 254:0.137587 255:0.00578035 
1 1:0.877355 3:0.888945 4:0.893088 5:0.898567 6:0.898826 7:0.904321 8:0.909135 9:0.908328 10:0.906569 11:0.912483 12:0.919554 13:0.919937 14:0.917527 15:0.918677 16:0.919671 17:0.913165 18:0.906928 19:0.905891 20:0.901885 21:0.894553 22:0.887398 23:0.874083 24:0.858054 25:0.843018 26:0.82673 27:0.817708 28:0.809444 29:0.792106 30:0.770534 31:0.752105 32:0.730677 33:0.709424 34:0.690488 35:0.67112 36:0.647638 37:0.629401 38:0.612828 39:0.598309 40:0.576939 41:0.567321 42:0.545397 43:0.518588 44:0.390946 45:0.451091 46:0.434535 47:0.387676 48:0.33367 49:0.305286 50:0.213242 51:0.121657 52:0.0708638 53:-0.0646341 54:-0.191044 55:-0.213608 56:-0.418756 57:-0.551319 58:-0.6239 59:-0.73627 60:-0.830349 61:-0.863351 62:-0.78902 63:-0.958734 64:-0.977901 65:-0.98079 66:-1 67:-1 68:-1 69:-1 70:-0.983266 71:-0.977906 72:-0.975394 73:-0.957256 74:-0.921434 75:-0.887291 76:-0.857006 77:-0.841612 78:-0.815185 79:-0.785075 80:-0.766692 81:-0.745722 82:-0.718359 83:-0.692996 84:-0.670201 85:-0.634209 86:-0.565643 87:-0.594397 88:-0.621321 89:-0.641861 90:-0.64929 91:-0.651245 92:-0.647384 93:-0.627655 94:-0.603322 95:-0.577317 96:-0.570973 97:-0.560495 98:-0.552108 99:-0.532241 100:-0.502673 101:-0.460517 102:-0.42473 103:-0.38891 104:-0.379169 105:-0.340891 106:-0.300545 107:-0.221016 108:-0.185904 109:-0.0933661 110:0.0457413 111:0.213632 112:0.439284 113:0.722514 114:0.932489 115:1 116:0.964571 117:0.863915 118:0.824049 119:0.753171 120:0.681188 121:0.635448 122:0.603297 123:0.573865 124:0.562369 125:0.533252 126:0.483063 127:0.411894 128:0.368391 129:0.327773 130:0.279603 131:0.261573 132:0.223216 133:0.176516 134:0.131953 135:0.0769871 136:0.0295409 137:-0.141838 138:-0.173873 139:-0.192524 140:-0.150396 141:-0.199881 142:-0.230321 143:-0.155748 144:0.0291729 145:0.0606349 146:-0.0500185 147:-0.238355 148:-0.222119 149:-0.194189 150:-0.132331 151:-0.0891474 152:0.126878 153:0.306919 154:0.161922 155:0.279559 156:0.358205 157:0.361971 158:0.30361 159:0.215697 160:0.132753 161:0.0640834 162:0.0767214 163:0.127496 164:0.18374 165:0.0742079 166:0.0164698 167:0.184459 168:0.133423 169:-0.209995 170:-0.782979 171:-1 172:-1 173:-0.70462 174:-0.377788 175:-0.175682 176:-0.0459111 177:0.0125525 178:0.0522487 179:0.0531447 180:0.0829149 181:0.0790833 182:0.0410481 183:0.0156753 184:-0.0581626 185:-0.13126 186:-0.208383 187:-0.237929 188:-0.167465 189:0.00652501 190:0.160054 191:0.170354 192:0.149352 193:0.124471 194:0.00389605 195:-0.255119 196:-0.371376 197:-0.286485 198:-0.194126 199:-0.229406 200:-0.255086 201:-0.327705 202:-0.383206 203:-0.433153 204:-0.496461 205:-0.562028 206:-0.55838 207:-0.469694 208:-0.277349 209:-0.0983722 210:-0.180271 211:-0.170901 212:0.0132131 213:-0.0201349 214:-0.0909566 215:-0.104915 216:-0.0970302 217:-0.133799 218:-0.164975 219:-0.131722 220:0.166362 221:0.372205 222:0.416314 223:0.307438 224:0.197983 225:0.132873 226:0.122183 227:0.167351 228:0.416703 229:0.753597 230:1 231:1 232:1 233:1 234:1 235:0.978192 236:0.911048 237:0.963638 238:1 239:0.788237 240:0.699134 241:0.672197 242:0.640672 243:0.756911 244:0.870735 245:0.625088 246:0.560867 247:0.737765 248:0.883538 249:0.880724 250:0.811497 251:0.664268 252:0.524228 253:0.470978 254:0.356499 255:0.190751 
1 1:1 3:0.999919 4:0.995829 5:0.999465 6:1 7:0.99864 8:0.999047 9:1 10:0.999969 11:1 12:1 13:1 14:0.998899 15:0.999585 16:1 17:0.999131 18:0.999578 19:0.99971 20:0.996 21:0.989128 22:0.988889 23:0.989416 24:0.985697 25:0.977008 26:0.968505 27:0.960381 28:0.953598 29:0.946706 30:0.938211 31:0.932613 32:0.918418 33:0.900904 34:0.887415 35:0.873643 36:0.84926 37:0.829256 38:0.803823 39:0.763115 40:0.710319 41:0.66893 42:0.599553 43:0.497996 44:0.275327 45:0.120232 46:-0.104494 47:-0.240311 48:-0.580526 49:-0.795295 50:-0.88037 51:-0.989954 52:-1 53:-0.992224 54:-0.989297 55:-0.900175 56:-0.945826 57:-0.918047 58:-0.906478 59:-0.876001 60:-0.860018 61:-0.838427 62:-0.699214 63:-0.797294 64:-0.773006 65:-0.753911 66:-0.745434 67:-0.718212 68:-0.702913 69:-0.694795 70:-0.670569 71:-0.665047 72:-0.656426 73:-0.62767 74:-0.601811 75:-0.581508 76:-0.553342 77:-0.529105 78:-0.510168 79:-0.488559 80:-0.45422 81:-0.420127 82:-0.389931 83:-0.335613 84:-0.277821 85:-0.206202 86:-0.040337 87:-0.0962009 88:-0.140053 89:-0.151165 90:-0.139771 91:-0.108322 92:-0.0440567 93:0.0526477 94:0.187008 95:0.37619 96:0.520287 97:0.688378 98:0.866483 99:0.980335 100:1 101:1 102:0.962135 103:0.914216 104:0.758228 105:0.676691 106:0.591955 107:0.58109 108:0.455492 109:0.415633 110:0.397083 111:0.333075 112:0.263171 113:0.208486 114:0.16208 115:0.122439 116:0.0909311 117:0.0413077 118:0.0266903 119:0.0101549 120:-0.0146412 121:-0.0282547 122:-0.0292879 123:-0.0248151 124:-0.00906793 125:-0.0218397 126:-0.0839519 127:-0.204824 128:-0.283038 129:-0.32463 130:-0.372963 131:-0.406096 132:-0.455068 133:-0.504616 134:-0.547443 135:-0.624851 136:-0.707332 137:-0.935549 138:-1 139:-1 140:-1 141:-1 142:-1 143:-0.853586 144:-0.547971 145:-0.502059 146:-0.683586 147:-1 148:-1 149:-1 150:-1 151:-1 152:-1 153:-1 154:-0.839041 155:-0.0696888 156:0.214553 157:0.319868 158:0.33599 159:0.348555 160:0.368071 161:0.393198 162:0.501224 163:0.621217 164:0.724464 165:0.48619 166:0.465265 167:0.896403 168:1 169:1 170:1 171:1 172:1 173:0.833221 174:0.688278 175:0.860122 176:0.950525 177:0.989328 178:1 179:1 180:1 181:0.967129 182:0.896673 183:0.811359 184:0.701385 185:0.55254 186:0.371829 187:0.317693 188:0.450878 189:0.74229 190:0.981692 191:1 192:1 193:1 194:0.844074 195:0.438046 196:0.263572 197:0.500442 198:0.780265 199:0.758656 200:0.75385 201:0.637915 202:0.494377 203:0.322397 204:0.140462 205:-0.0555172 206:-0.264425 207:-0.440901 208:-0.493607 209:-0.539945 210:-0.701269 211:-0.909499 212:-1 213:-1 214:-1 215:-0.88811 216:-0.750408 217:-0.708121 218:-0.742089 219:-0.847729 220:-0.700253 221:-0.316799 222:-0.196974 223:-0.278767 224:-0.313359 225:-0.341059 226:-0.469657 227:-0.570982 228:-0.478137 229:-0.368555 230:-0.312122 231:-0.340351 232:-0.350896 233:-0.340264 234:-0.308401 235:-0.270037 236:-0.242611 237:-0.150122 238:-0.0583982 239:-0.141622 240:-0.146511 241:-0.12594 242:-0.115291 243:-0.0192559 244:0.0735971 245:-0.0574294 246:-0.0931701 247:0.0474155 248:0.132178 249:0.141203 250:0.152455 251:0.071354 252:-0.050338 253:-0.0359447 254:-0.11894 255:-0.294798 
1 1:0.934779 3:0.962642 4:0.966257 5:0.985492 6:0.997417 7:0.999188 8:0.998986 9:0.999959 10:1 11:0.99999 12:1 13:1 14:0.998889 15:0.999605 16:0.999959 17:0.999131 18:0.999835 19:0.998656 20:0.998691 21:0.999958 22:0.999989 23:0.998885 24:0.999358 25:1 26:1 27:0.998758 28:0.99875 29:0.999877 30:0.998958 31:1 32:0.998043 33:0.997243 34:0.999046 35:0.999959 36:0.996746 37:1 38:0.998935 39:0.996027 40:0.989198 41:0.998203 42:0.989911 43:0.990933 44:0.861971 45:0.96439 46:0.958931 47:0.948944 48:0.90536 49:0.872076 50:0.810727 51:0.598106 52:0.420569 53:-0.00709965 54:-0.576979 55:-0.662722 56:-0.860369 57:-0.946423 58:-0.961843 59:-0.987026 60:-0.998103 61:-1 62:-0.868649 63:-0.997052 64:-1 65:-0.988855 66:-0.996747 67:-0.989529 68:-0.98194 69:-0.973015 70:-0.95984 71:-0.977502 72:-0.982252 73:-0.959849 74:-0.946984 75:-0.943246 76:-0.925119 77:-0.920135 78:-0.919703 79:-0.919587 80:-0.909914 81:-0.899791 82:-0.88917 83:-0.878241 84:-0.867413 85:-0.846138 86:-0.815393 87:-0.826106 88:-0.835648 89:-0.830983 90:-0.823097 91:-0.819245 92:-0.806335 93:-0.783376 94:-0.750823 95:-0.70756 96:-0.685689 97:-0.662929 98:-0.624619 99:-0.575376 100:-0.518932 101:-0.428129 102:-0.310328 103:-0.151006 104:0.023983 105:0.326346 106:0.678558 107:1 108:1 109:1 110:0.999545 111:0.931959 112:0.851817 113:0.799405 114:0.754861 115:0.716032 116:0.696385 117:0.640844 118:0.632051 119:0.605819 120:0.564931 121:0.535796 122:0.525079 123:0.499208 124:0.485869 125:0.462894 126:0.410037 127:0.326573 128:0.274142 129:0.227615 130:0.162066 131:0.124657 132:0.0698107 133:0.0119342 134:-0.0380727 135:-0.101946 136:-0.169572 137:-0.377523 138:-0.445169 139:-0.47099 140:-0.449281 141:-0.486063 142:-0.513977 143:-0.433657 144:-0.199848 145:-0.155547 146:-0.302145 147:-0.536661 148:-0.507356 149:-0.472699 150:-0.396323 151:-0.34224 152:-0.0799496 153:0.148494 154:-0.017356 155:0.125722 156:0.220303 157:0.23421 158:0.149013 159:0.019919 160:0.0341885 161:0.0666145 162:0.147223 163:0.258986 164:0.349925 165:0.223503 166:0.209891 167:0.527223 168:0.614554 169:0.607889 170:0.561872 171:0.550571 172:0.512408 173:0.358534 174:0.291724 175:0.427253 176:0.492261 177:0.503667 178:0.494026 179:0.466738 180:0.465243 181:0.432737 182:0.363844 183:0.299173 184:0.196494 185:0.0823364 186:-0.0395492 187:-0.088752 188:-0.0194793 189:0.16437 190:0.320124 191:0.323529 192:0.295567 193:0.242082 194:0.0952208 195:-0.192984 196:-0.338219 197:-0.267568 198:-0.199272 199:-0.272628 200:-0.339995 201:-0.451539 202:-0.559332 203:-0.679905 204:-0.806499 205:-0.927022 206:-0.990356 207:-0.952609 208:-0.747689 209:-0.547197 210:-0.534619 211:-0.598787 212:-0.585885 213:-0.704052 214:-0.899045 215:-1 216:-1 217:-1 218:-1 219:-1 220:-0.648821 221:-0.128018 222:0.0751999 223:0.0511607 224:0.0139222 225:-0.0251216 226:-0.090772 227:-0.129383 228:0.00657543 229:0.168092 230:0.247768 231:0.1783 232:0.134656 233:0.12868 234:0.160839 235:0.197049 236:0.209706 237:0.304389 238:0.38461 239:0.248135 240:0.197569 241:0.189598 242:0.166629 243:0.226637 244:0.280276 245:0.08325 246:-0.00547212 247:0.0684822 248:0.0772544 249:0.0179898 250:-0.0255489 251:-0.161684 252:-0.331579 253:-0.33517 254:-0.453068 255:-0.676301 
0.9850040378731424 1:0.906421 3:0.919262 4:0.914921 5:0.921757 6:0.930187 7:0.935632 8:0.942753 9:0.950614 10:0.957268 11:0.964296 12:0.972058 13:0.97921 14:0.978285 15:0.981303 16:0.989263 17:0.988727 18:0.991819 19:0.998387 20:0.999543 21:0.999634 22:1 23:0.998938 24:0.999336 25:1 26:1 27:0.998758 28:0.99875 29:0.999877 30:0.998958 31:1 32:0.998043 33:0.997243 34:0.999046 35:0.999949 36:0.996767 37:0.99998 38:0.998894 39:0.996351 40:0.988165 41:1 42:0.999918 43:0.999929 44:0.879514 45:0.999026 46:0.999928 47:0.999517 48:0.999848 49:0.999283 50:1 51:0.999192 52:0.999567 53:1 54:1 55:0.994188 56:0.988852 57:0.98323 58:0.953375 59:0.9796 60:0.722761 61:-0.411683 62:-1 63:-1 64:-0.971846 65:-1 66:-0.997456 67:-0.990945 68:-0.985922 69:-0.978308 70:-0.962708 71:-0.972719 72:-0.977543 73:-0.95822 74:-0.941836 75:-0.930442 76:-0.912948 77:-0.910946 78:-0.90595 79:-0.898402 80:-0.891135 81:-0.877898 82:-0.859285 83:-0.848496 84:-0.833602 85:-0.802818 86:-0.76849 87:-0.77848 88:-0.786941 89:-0.802963 90:-0.805242 91:-0.802158 92:-0.797692 93:-0.782673 94:-0.768982 95:-0.754208 96:-0.754003 97:-0.754305 98:-0.757166 99:-0.759074 100:-0.755644 101:-0.740718 102:-0.736764 103:-0.741125 104:-0.758479 105:-0.764851 106:-0.778005 107:-0.785608 108:-0.801748 109:-0.810085 110:-0.819526 111:-0.835696 112:-0.854452 113:-0.8708 114:-0.892736 115:-0.916635 116:-0.936506 117:-0.963014 118:-1 119:-1 120:-1 121:-1 122:-1 123:-1 124:-1 125:-1 126:-1 127:-1 128:-0.881278 129:-0.692954 130:-0.572245 131:-0.485959 132:-0.434948 133:-0.404338 134:-0.393543 135:-0.427979 136:-0.464361 137:-0.643203 138:-0.671138 139:-0.652794 140:-0.612114 141:-0.618435 142:-0.614973 143:-0.487026 144:-0.23337 145:-0.186783 146:-0.321301 147:-0.552682 148:-0.531062 149:-0.48381 150:-0.402869 151:-0.363737 152:-0.105544 153:0.114116 154:-0.0806893 155:0.0623127 156:0.148359 157:0.135826 158:0.0490564 159:-0.0766196 160:-0.215886 161:-0.344394 162:-0.33157 163:-0.266841 164:-0.189165 165:-0.159115 166:-0.164084 167:0.0207457 168:0.0710508 169:0.011259 170:-0.125181 171:-0.16585 172:-0.344727 173:-0.579081 174:-0.575653 175:-0.676823 176:-0.879484 177:-0.999185 178:-0.71352 179:-0.294584 180:0.0297087 181:0.205764 182:0.281582 183:0.317514 184:0.281762 185:0.198695 186:0.080566 187:0.0590257 188:0.18133 189:0.42432 190:0.632856 191:0.662375 192:0.671532 193:0.667922 194:0.527082 195:0.185588 196:0.0436211 197:0.234261 198:0.46854 199:0.46629 200:0.491321 201:0.427189 202:0.345887 203:0.261966 204:0.193262 205:0.133677 206:0.0851559 207:0.0909874 208:0.190207 209:0.273615 210:0.0569172 211:0.0586996 212:0.265506 213:0.213063 214:0.128675 215:0.0777042 216:0.0530261 217:-0.00172854 218:-0.0445672 219:-0.00830044 220:0.27672 221:0.423563 222:0.417317 223:0.252575 224:0.0965592 225:-0.0227203 226:-0.145073 227:-0.238345 228:-0.155366 229:-0.0476847 230:-0.00199131 231:-0.0665821 232:-0.100398 233:-0.0933897 234:-0.0346334 235:0.0577642 236:0.171524 237:0.449681 238:0.866873 239:1 240:1 241:0.935594 242:0.83032 243:0.907149 244:1 245:0.725823 246:0.654364 247:0.838714 248:1 249:1 250:0.921038 251:0.765832 252:0.625201 253:0.563618 254:0.444122 255:0.271676 
-1 1:0.931558 3:0.951307 4:0.956816 5:0.966028 6:0.970695 7:0.97432 8:0.980945 9:0.987885 10:0.989975 11:0.989301 12:0.991978 13:0.998042 14:1 15:1 16:0.999654 17:0.999049 18:0.999918 19:0.998666 20:0.99867 21:0.999958 22:0.999979 23:0.998885 24:0.999422 25:0.999978 26:0.999738 27:0.998894 28:0.999693 29:0.999036 30:0.992698 31:0.988264 32:0.981708 33:0.973267 34:0.963984 35:0.954714 36:0.941668 37:0.929127 38:0.905979 39:0.878344 40:0.843466 41:0.825423 42:0.792422 43:0.752221 44:0.604592 45:0.663307 46:0.621178 47:0.581776 48:0.53162 49:0.479881 50:0.425948 51:0.367868 52:0.311186 53:0.250437 54:0.194527 55:0.176299 56:0.0891576 57:0.0409413 58:-0.0125454 59:-0.0543355 60:-0.0912339 61:-0.126565 62:-0.0842808 63:-0.189596 64:-0.212231 65:-0.228875 66:-0.255968 67:-0.268718 68:-0.283008 69:-0.297325 70:-0.300742 71:-0.323126 72:-0.33819 73:-0.337216 74:-0.34137 75:-0.346138 76:-0.342943 77:-0.348761 78:-0.352838 79:-0.354329 80:-0.345264 81:-0.339063 82:-0.341258 83:-0.3219 84:-0.301374 85:-0.274606 86:-0.183563 87:-0.2769 88:-0.349296 89:-0.395965 90:-0.427543 91:-0.449771 92:-0.451652 93:-0.435113 94:-0.416704 95:-0.398346 96:-0.415694 97:-0.424179 98:-0.422873 99:-0.417825 100:-0.413092 101:-0.392052 102:-0.373033 103:-0.355982 104:-0.376924 105:-0.373864 106:-0.375208 107:-0.350678 108:-0.365853 109:-0.345087 110:-0.316171 111:-0.304302 112:-0.296926 113:-0.276149 114:-0.245785 115:-0.207584 116:-0.149068 117:-0.0924316 118:0.0189044 119:0.177494 120:0.377022 121:0.622511 122:0.864298 123:0.990051 124:1 125:0.937636 126:0.850727 127:0.764742 128:0.711045 129:0.647955 130:0.581039 131:0.552223 132:0.502432 133:0.449742 134:0.410223 135:0.360866 136:0.318647 137:0.166527 138:0.135455 139:0.106299 140:0.174114 141:0.106863 142:0.0639469 143:0.119274 144:0.264416 145:0.290705 146:0.217702 147:0.104012 148:0.133722 149:0.159059 150:0.214288 151:0.265024 152:0.425641 153:0.550678 154:0.471317 155:0.563147 156:0.617739 157:0.616311 158:0.587847 159:0.558389 160:0.506892 161:0.43411 162:0.431045 163:0.456532 164:0.462272 165:0.244118 166:0.185246 167:0.427176 168:0.403219 169:0.255992 170:0.023724 171:-0.163813 172:-0.532423 173:-0.943433 174:-0.949313 175:-1 176:-1 177:-0.953582 178:-0.854377 179:-0.807208 180:-0.675308 181:-0.587917 182:-0.55439 183:-0.499678 184:-0.516379 185:-0.517335 186:-0.516572 187:-0.507637 188:-0.440107 189:-0.301893 190:-0.163129 191:-0.128042 192:-0.134576 193:-0.158516 194:-0.257824 195:-0.451887 196:-0.543322 197:-0.489623 198:-0.426284 199:-0.454554 200:-0.46531 201:-0.495844 202:-0.521566 203:-0.548856 204:-0.582473 205:-0.616163 206:-0.583775 207:-0.469764 208:-0.238628 209:-0.0352562 210:-0.129659 211:-0.110378 212:0.107912 213:0.0979525 214:0.0447972 215:0.0368884 216:0.0498995 217:0.0332794 218:0.0540151 219:0.205061 220:0.654904 221:0.857484 222:0.981112 223:1 224:0.9251 225:0.874524 226:1 227:1 228:1 229:1 230:0.863077 231:0.569959 232:0.384402 233:0.284602 234:0.245042 235:0.223188 236:0.1908 237:0.252261 238:0.309335 239:0.165211 240:0.115502 241:0.107962 242:0.0921174 243:0.17146 244:0.249233 245:0.0769643 246:0.0188225 247:0.149592 248:0.237049 249:0.249443 250:0.251976 251:0.159658 252:0.0419318 253:0.0553685 254:-0.0243889 255:-0.190751 
-1 1:0.517015 3:0.515563 4:0.511504 5:0.509051 6:0.501 7:0.49289 8:0.491715 9:0.491776 10:0.485625 11:0.484906 12:0.481026 13:0.475831 14:0.468825 15:0.462518 16:0.455047 17:0.446103 18:0.438216 19:0.428369 20:0.419323 21:0.413991 22:0.410143 23:0.40376 24:0.398645 25:0.399999 26:0.407021 27:0.442143 28:0.47412 29:0.493554 30:0.518948 31:0.553505 32:0.586383 33:0.617232 34:0.653041 35:0.69258 36:0.725502 37:0.759693 38:0.794593 39:0.83114 40:0.854775 41:0.891325 42:0.919066 43:0.946036 44:0.8469 45:0.978519 46:0.992535 47:1 48:0.99609 49:0.970334 50:0.91762 51:0.832564 52:0.72138 53:0.588453 54:0.446718 55:0.333993 56:0.179067 57:0.0822695 58:-0.00160165 59:-0.0669253 60:-0.120792 61:-0.165362 62:-0.122461 63:-0.229081 64:-0.247561 65:-0.25497 66:-0.274986 67:-0.285085 68:-0.292723 69:-0.295163 70:-0.290753 71:-0.30942 72:-0.315589 73:-0.302129 74:-0.29865 75:-0.299958 76:-0.292384 77:-0.29074 78:-0.287277 79:-0.286133 80:-0.277169 81:-0.26678 82:-0.261448 83:-0.236298 84:-0.214074 85:-0.180327 86:-0.0670161 87:-0.169668 88:-0.254087 89:-0.309998 90:-0.344537 91:-0.361798 92:-0.360073 93:-0.348793 94:-0.332969 95:-0.306379 96:-0.319847 97:-0.330003 98:-0.330576 99:-0.325567 100:-0.320764 101:-0.296587 102:-0.272899 103:-0.252825 104:-0.280167 105:-0.275593 106:-0.265546 107:-0.223971 108:-0.241051 109:-0.215918 110:-0.167819 111:-0.126356 112:-0.0817033 113:-0.0141464 114:0.138424 115:0.484738 116:0.887485 117:0.97811 118:0.8917 119:0.748111 120:0.631904 121:0.568045 122:0.534921 123:0.503481 124:0.490914 125:0.467337 126:0.41977 127:0.345981 128:0.301776 129:0.26628 130:0.224587 131:0.208561 132:0.169639 133:0.130608 134:0.105989 135:0.0642301 136:0.0214723 137:-0.147888 138:-0.187868 139:-0.206657 140:-0.148048 141:-0.186097 142:-0.214087 143:-0.133769 144:0.0593021 145:0.100767 146:0.00714549 147:-0.149776 148:-0.120085 149:-0.0902717 150:-0.0237667 151:0.0359519 152:0.241964 153:0.399998 154:0.272569 155:0.376091 156:0.443852 157:0.438228 158:0.373671 159:0.279239 160:0.137501 161:-0.0593663 162:-0.182198 163:-0.427532 164:-0.93131 165:-1 166:-1 167:-0.895368 168:-0.588917 169:-0.413227 170:-0.388369 171:-0.27231 172:-0.309679 173:-0.387597 174:-0.262602 175:-0.112167 176:-0.0243602 177:0.0164076 178:0.0457059 179:0.0433156 180:0.0859575 181:0.0918007 182:0.0571248 183:0.0357272 184:-0.0317195 185:-0.10162 186:-0.182813 187:-0.210456 188:-0.127888 189:0.0603564 190:0.225818 191:0.246402 192:0.244819 193:0.235238 194:0.114439 195:-0.155096 196:-0.274511 197:-0.16515 198:-0.0288921 199:-0.0327143 200:-0.0130312 201:-0.0587302 202:-0.113625 203:-0.15928 204:-0.190893 205:-0.220607 206:-0.211293 207:-0.147689 208:0.010956 209:0.162702 210:0.00389858 211:0.0165826 212:0.238718 213:0.210329 214:0.145752 215:0.119785 216:0.114032 217:0.0796653 218:0.0750129 219:0.192282 220:0.617642 221:0.772605 222:0.744921 223:0.74357 224:1 225:1 226:0.541537 227:-0.144446 228:-0.238293 229:-0.105827 230:-0.125188 231:-0.25433 232:-0.317976 233:-0.343733 234:-0.344294 235:-0.333954 236:-0.330314 237:-0.267579 238:-0.204473 239:-0.29864 240:-0.315619 241:-0.313107 242:-0.32312 243:-0.27462 244:-0.228449 245:-0.349621 246:-0.408113 247:-0.317364 248:-0.292839 249:-0.295984 250:-0.249022 251:-0.300738 252:-0.410355 253:-0.353211 254:-0.415476 255:-0.583815 
-1 1:-0.0530866 3:0.145171 4:0.248097 5:0.360461 6:0.466337 7:0.558313 8:0.638194 9:0.704782 10:0.759929 11:0.812027 12:0.855778 13:0.89189 14:0.919184 15:0.939907 16:0.953938 17:0.964464 18:0.975168 19:0.981038 20:0.985662 21:0.991909 22:0.997546 23:0.999618 24:1 25:0.999816 26:0.999815 27:0.998789 28:0.998781 29:0.999877 30:0.99902 31:0.999969 32:0.99779 33:0.997324 34:1 35:0.999827 36:0.991993 37:0.989897 38:0.985293 39:0.976768 40:0.95576 41:0.950998 42:0.936102 43:0.921354 44:0.788595 45:0.881275 46:0.859759 47:0.836781 48:0.805829 49:0.770061 50:0.733428 51:0.693349 52:0.651231 53:0.600683 54:0.54478 55:0.50596 56:0.425997 57:0.371295 58:0.307006 59:0.242597 60:0.179405 61:0.121435 62:0.132933 63:0.031543 64:-0.0048861 65:-0.043672 66:-0.088475 67:-0.115044 68:-0.144657 69:-0.174093 70:-0.189317 71:-0.222487 72:-0.248286 73:-0.253678 74:-0.260435 75:-0.27162 76:-0.27885 77:-0.290774 78:-0.297463 79:-0.30605 80:-0.308933 81:-0.312581 82:-0.318385 83:-0.298386 84:-0.276743 85:-0.247576 86:-0.152176 87:-0.254127 88:-0.335683 89:-0.386395 90:-0.417659 91:-0.438325 92:-0.441297 93:-0.430404 94:-0.416933 95:-0.398357 96:-0.415725 97:-0.429526 98:-0.435267 99:-0.433825 100:-0.428613 101:-0.407459 102:-0.39222 103:-0.380398 104:-0.402207 105:-0.399658 106:-0.401156 107:-0.37626 108:-0.390013 109:-0.369909 110:-0.336922 111:-0.311889 112:-0.285201 113:-0.245215 114:-0.191754 115:-0.0661423 116:0.208153 117:0.526925 118:0.844351 119:1 120:0.963847 121:0.845882 122:0.755982 123:0.702095 124:0.680878 125:0.650149 126:0.59954 127:0.533678 128:0.498037 129:0.461395 130:0.415865 131:0.400504 132:0.365972 133:0.330044 134:0.300967 135:0.254665 136:0.216667 137:0.0689716 138:0.0431824 139:0.0167379 140:0.0803801 141:0.0277863 142:-0.00316838 143:0.0592213 144:0.214061 145:0.243452 146:0.163825 147:0.0368057 148:0.073276 149:0.118391 150:0.189304 151:0.242362 152:0.410728 153:0.545909 154:0.468644 155:0.562183 156:0.627088 157:0.636905 158:0.613019 159:0.595899 160:0.580283 161:0.546285 162:0.55333 163:0.590641 164:0.623303 165:0.371808 166:0.314814 167:0.614068 168:0.622947 169:0.520783 170:0.328354 171:0.0616606 172:-0.457814 173:-1 174:-1 175:-0.948088 176:-0.737556 177:-0.507945 178:-0.36571 179:-0.326866 180:-0.229701 181:-0.170461 182:-0.163907 183:-0.15099 184:-0.199948 185:-0.246113 186:-0.294102 187:-0.302156 188:-0.221148 189:-0.0490482 190:0.113406 191:0.149175 192:0.153936 193:0.144589 194:0.033053 195:-0.216507 196:-0.327877 197:-0.225245 198:-0.0940852 199:-0.0977137 200:-0.0856039 201:-0.128322 202:-0.17795 203:-0.23183 204:-0.276985 205:-0.311231 206:-0.297709 207:-0.226177 208:-0.0578577 209:0.0967108 210:-0.0473124 211:-0.0366251 212:0.177236 213:0.149803 214:0.0820532 215:0.0533228 216:0.0436883 217:0.00240979 218:-0.0133277 219:0.0670454 220:0.404383 221:0.556414 222:0.579176 223:0.454072 224:0.302639 225:0.192985 226:0.143542 227:0.134603 228:0.312891 229:0.541722 230:0.672322 231:0.616017 232:0.620256 233:0.715376 234:0.874765 235:1 236:1 237:1 238:0.883044 239:0.53463 240:0.360764 241:0.27493 242:0.196643 243:0.228837 244:0.263146 245:0.0575278 246:-0.0252205 247:0.0779285 248:0.129508 249:0.111861 250:0.102888 251:0.00503281 252:-0.124136 253:-0.105385 254:-0.187473 255:-0.364162 
-1 1:0.913753 3:0.924313 4:0.925108 5:0.93255 6:0.938656 7:0.947006 8:0.957681 9:0.964916 10:0.968757 11:0.973779 12:0.979091 13:0.983973 14:0.987864 15:0.994325 16:0.9994 17:1 18:1 19:0.998428 20:0.998649 21:1 22:0.999979 23:0.99896 24:0.999433 25:0.999654 26:0.999662 27:1 28:1 29:0.99442 30:0.97697 31:0.949984 32:0.906464 33:0.848269 34:0.777854 35:0.695494 36:0.601713 37:0.507922 38:0.411417 39:0.320626 40:0.23321 41:0.165775 42:0.100545 43:0.0460901 44:-0.0619884 45:-0.045874 46:-0.0857688 47:-0.105515 48:-0.14435 49:-0.173777 50:-0.19799 51:-0.222453 52:-0.244059 53:-0.271655 54:-0.292559 55:-0.256611 56:-0.31883 57:-0.318542 58:-0.33047 59:-0.335415 60:-0.339711 61:-0.343065 62:-0.25269 63:-0.330567 64:-0.318095 65:-0.305301 66:-0.310165 67:-0.301906 68:-0.29404 69:-0.285909 70:-0.266275 71:-0.266816 72:-0.263607 73:-0.246098 74:-0.232604 75:-0.221601 76:-0.207214 77:-0.200993 78:-0.192301 79:-0.183505 80:-0.161651 81:-0.138261 82:-0.125462 83:-0.090442 84:-0.0576712 85:-0.0116535 86:0.13327 87:0.0141774 88:-0.0835861 89:-0.144829 90:-0.179678 91:-0.195757 92:-0.188832 93:-0.16633 94:-0.136762 95:-0.0994539 96:-0.116561 97:-0.125816 98:-0.1157 99:-0.0950086 100:-0.0749438 101:-0.0295027 102:0.0159629 103:0.0581227 104:0.0334446 105:0.0511493 106:0.0725746 107:0.146504 108:0.146751 109:0.218565 110:0.321597 111:0.401212 112:0.483333 113:0.600415 114:0.744245 115:0.882275 116:0.992295 117:1 118:1 119:0.915149 120:0.812604 121:0.739562 122:0.682002 123:0.620657 124:0.580983 125:0.534712 126:0.470695 127:0.386648 128:0.33318 129:0.28719 130:0.234135 131:0.206202 132:0.154824 133:0.10169 134:0.0632186 135:0.0129394 136:-0.0315697 137:-0.202099 138:-0.241336 139:-0.261608 140:-0.217129 141:-0.257503 142:-0.27783 143:-0.186088 144:0.0163614 145:0.0579611 146:-0.0410993 147:-0.201418 148:-0.16066 149:-0.118301 150:-0.043387 151:0.015708 152:0.227186 153:0.399491 154:0.294167 155:0.417777 156:0.504557 157:0.523362 158:0.498465 159:0.472138 160:0.446292 161:0.418578 162:0.461099 163:0.534526 164:0.600469 165:0.38178 166:0.351781 167:0.706043 168:0.778365 169:0.763658 170:0.705722 171:0.632858 172:0.566767 173:0.434768 174:0.14971 175:-0.379727 176:-0.883471 177:-0.653122 178:-0.0858193 179:0.114545 180:0.106184 181:0.097097 182:0.0944919 183:0.0812894 184:0.00387023 185:-0.073062 186:-0.154908 187:-0.1811 188:-0.100124 189:0.0839266 190:0.249142 191:0.270759 192:0.262992 193:0.243561 194:0.119375 195:-0.150355 196:-0.270535 197:-0.15896 198:-0.0196422 199:-0.0376519 200:-0.0493433 201:-0.112348 202:-0.165169 203:-0.212832 204:-0.26147 205:-0.318672 206:-0.333282 207:-0.276407 208:-0.108129 209:0.0496014 210:-0.0833249 211:-0.0795228 212:0.112427 213:0.066772 214:-0.0185489 215:-0.0492056 216:-0.0540683 217:-0.102573 218:-0.14827 219:-0.136813 220:0.122238 221:0.300423 222:0.311362 223:0.15486 224:0.0120588 225:-0.0872489 226:-0.204777 227:-0.300357 228:-0.220443 229:-0.124939 230:-0.0968837 231:-0.169394 232:-0.214807 233:-0.232103 234:-0.224521 235:-0.218126 236:-0.245044 237:-0.25737 238:-0.34498 239:-0.644597 240:-0.871144 241:-0.929421 242:-0.757236 243:-0.503893 244:-0.358598 245:-0.429969 246:-0.452123 247:-0.330127 248:-0.283289 249:-0.269646 250:-0.210153 251:-0.252597 252:-0.353604 253:-0.297162 254:-0.362264 255:-0.537572 
-1 1:0.979812 3:0.979704 4:0.975677 5:0.979293 6:0.979741 7:0.978277 8:0.978754 9:0.97992 10:0.97952 11:0.978744 12:0.979677 13:0.984579 14:0.988602 15:0.990454 16:0.989823 17:0.988881 18:0.989586 19:0.987407 20:0.988062 21:0.994198 22:0.999684 23:1 24:0.999454 25:0.999708 26:0.999978 27:0.9988 28:0.99874 29:1 30:0.999009 31:0.999461 32:0.99783 33:0.99926 34:0.999878 35:0.990021 36:0.969106 37:0.95179 38:0.923018 39:0.87877 40:0.815459 41:0.759399 42:0.678508 43:0.57808 44:0.37095 45:0.328121 46:0.201429 47:0.103672 48:0.00567375 49:-0.074408 50:-0.140104 51:-0.193203 52:-0.231529 53:-0.269544 54:-0.298071 55:-0.268566 56:-0.339853 57:-0.350285 58:-0.3718 59:-0.379489 60:-0.382187 61:-0.386789 62:-0.29776 63:-0.383766 64:-0.377227 65:-0.36811 66:-0.373121 67:-0.362883 68:-0.354206 69:-0.346801 70:-0.327959 71:-0.329351 72:-0.326934 73:-0.309366 74:-0.295716 75:-0.285056 76:-0.270776 77:-0.264201 78:-0.255028 79:-0.24972 80:-0.234541 81:-0.209566 82:-0.185056 83:-0.141599 84:-0.104914 85:-0.0550767 86:0.0910746 87:-0.0173762 88:-0.105232 89:-0.155835 90:-0.183233 91:-0.19808 92:-0.192013 93:-0.167003 94:-0.131843 95:-0.0877919 96:-0.0984112 97:-0.104665 98:-0.0974284 99:-0.0800781 100:-0.0591704 101:-0.0121896 102:0.0298063 103:0.0647432 104:0.035763 105:0.0541023 106:0.0738216 107:0.136684 108:0.119775 109:0.172956 110:0.256291 111:0.313063 112:0.370111 113:0.468777 114:0.610117 115:0.786466 116:0.96316 117:0.99172 118:0.95376 119:0.815684 120:0.658504 121:0.546775 122:0.477659 123:0.417843 124:0.378539 125:0.332444 126:0.263544 127:0.160859 128:0.0913559 129:0.0412831 130:-0.0197022 131:-0.0583262 132:-0.107596 133:-0.153453 134:-0.196248 135:-0.264999 136:-0.328202 137:-0.52444 138:-0.57658 139:-0.590176 140:-0.567008 141:-0.59071 142:-0.605247 143:-0.495341 144:-0.24926 145:-0.206044 146:-0.350346 147:-0.581372 148:-0.545091 149:-0.505349 150:-0.42286 151:-0.36815 152:-0.103578 153:0.118427 154:-0.0708226 155:0.0791604 156:0.183588 157:0.189457 158:0.113647 159:0.0141263 160:-0.0910021 161:-0.201431 162:-0.181232 163:-0.108614 164:-0.0287624 165:-0.0455576 166:-0.0525503 167:0.172935 168:0.232677 169:0.184364 170:0.0691121 171:0.0310265 172:-0.119439 173:-0.334581 174:-0.33032 175:-0.314182 176:-0.394528 177:-0.565207 178:-0.763432 179:-0.983634 180:-1 181:-0.902187 182:-0.731399 183:-0.522261 184:-0.437554 185:-0.377908 186:-0.349966 187:-0.316592 188:-0.208154 189:-0.00605499 190:0.188239 191:0.243052 192:0.260229 193:0.26103 194:0.153247 195:-0.107313 196:-0.214875 197:-0.0747291 198:0.0992092 199:0.110046 200:0.13899 201:0.0946577 202:0.0426339 203:-0.00920757 204:-0.0562859 205:-0.10455 206:-0.116073 207:-0.0672455 208:0.0760885 209:0.206441 210:0.022969 211:0.0266145 212:0.236179 213:0.189696 214:0.110552 215:0.0758066 216:0.0597004 217:0.0095578 218:-0.0184933 219:0.0390969 220:0.342156 221:0.48454 222:0.490158 223:0.337527 224:0.173394 225:0.0543436 226:-0.0462941 227:-0.12353 228:-0.0254552 229:0.0972615 230:0.140457 231:0.0563035 232:0.00389407 233:-0.0136831 234:0.00321031 235:0.0325121 236:0.0472343 237:0.125357 238:0.175593 239:0.0526724 240:0.0307791 241:-0.113911 242:-0.517534 243:-0.840301 244:-0.82394 245:-0.699227 246:-0.631699 247:-0.490382 248:-0.431855 249:-0.399037 250:-0.327172 251:-0.364549 252:-0.46073 253:-0.387761 254:-0.44635 255:-0.630058 
-0.4177871483299935 1:0.429828 3:0.104236 4:-0.101497 5:-0.32247 6:-0.540941 7:-0.726031 8:-0.856756 9:-0.941439 10:-0.998843 11:-1 12:-1 13:-1 14:-1 15:-1 16:-1 17:-1 18:-1 19:-1 20:-1 21:-1 22:-1 23:-1 24:-1 25:-1 26:-1 27:-0.908075 28:-0.830382 29:-0.804702 30:-0.772015 31:-0.736484 32:-0.702824 33:-0.670019 34:-0.634165 35:-0.59478 36:-0.548419 37:-0.479807 38:-0.401163 39:-0.365144 40:-0.290542 41:0.11374 42:0.721862 43:0.961957 44:0.646892 45:0.512971 46:0.401382 47:0.340256 48:0.270749 49:0.211016 50:0.161507 51:0.120496 52:0.0885923 53:0.0523738 54:0.0221426 55:0.0390984 56:-0.0202408 57:-0.0359474 58:-0.0617469 59:-0.0780299 60:-0.0923036 61:-0.107329 62:-0.0441525 63:-0.119939 64:-0.119993 65:-0.122218 66:-0.136604 67:-0.138142 68:-0.143033 69:-0.146096 70:-0.135581 71:-0.144804 72:-0.150948 73:-0.144529 74:-0.143322 75:-0.143621 76:-0.136166 77:-0.13376 78:-0.133549 79:-0.138158 80:-0.128005 81:-0.114993 82:-0.115138 83:-0.0905028 84:-0.0590382 85:-0.0116535 86:0.127718 87:0.000987284 88:-0.101535 89:-0.165909 90:-0.204039 91:-0.224198 92:-0.221854 93:-0.205026 94:-0.18239 95:-0.148428 96:-0.161169 97:-0.171957 98:-0.174727 99:-0.168237 100:-0.156911 101:-0.123155 102:-0.0944972 103:-0.0682002 104:-0.0955506 105:-0.0867097 106:-0.0824882 107:-0.0432512 108:-0.0720219 109:-0.0482508 110:-0.00928689 111:-0.000123926 112:-0.00177627 113:0.0136438 114:0.0420247 115:0.0767094 116:0.127407 117:0.160369 118:0.237712 119:0.319084 120:0.403567 121:0.518009 122:0.650124 123:0.770136 124:0.891714 125:0.974924 126:1 127:0.983223 128:0.947942 129:0.854578 130:0.744184 131:0.672825 132:0.576971 133:0.478086 134:0.39654 135:0.311313 136:0.238937 137:0.0503832 138:-0.0264264 139:-0.0958796 140:-0.0731345 141:-0.144046 142:-0.196832 143:-0.145363 144:0.0211821 145:0.0371666 146:-0.0894743 147:-0.283119 148:-0.260936 149:-0.241384 150:-0.193098 151:-0.160716 152:0.0632044 153:0.253159 154:0.0913018 155:0.210631 156:0.290486 157:0.296719 158:0.244977 159:0.167987 160:0.0709045 161:-0.0311788 162:-0.0112558 163:0.0567809 164:0.125985 165:0.054073 166:0.0383283 167:0.292954 168:0.356737 169:0.316002 170:0.221029 171:0.192912 172:0.0765941 173:-0.118497 174:-0.130622 175:-0.0645376 176:-0.0795921 177:-0.158575 178:-0.264328 179:-0.445024 180:-0.593095 181:-0.780125 182:-0.961341 183:-1 184:-0.985993 185:-0.834966 186:-0.672198 187:-0.55783 188:-0.413443 189:-0.198598 190:0.0223768 191:0.120872 192:0.168615 193:0.192923 194:0.114963 195:-0.117222 196:-0.20798 197:-0.0465713 198:0.161763 199:0.201092 200:0.25403 201:0.223539 202:0.185455 203:0.152322 204:0.132159 205:0.11627 206:0.126608 207:0.169499 208:0.273161 209:0.371859 210:0.144333 211:0.160784 212:0.406317 213:0.364652 214:0.292477 215:0.256954 216:0.237086 217:0.190221 218:0.185413 219:0.30933 220:0.693558 221:0.812112 222:0.834943 223:0.687928 224:0.472536 225:0.319753 226:0.266594 227:0.24307 228:0.388492 229:0.568506 230:0.634289 231:0.51701 232:0.449598 233:0.438426 234:0.48119 235:0.544576 236:0.592717 237:0.755538 238:0.907996 239:0.81681 240:0.873299 241:1 242:1 243:1 244:0.841736 245:0.313077 246:0.0531743 247:0.0733343 248:0.0604332 249:-0.0104462 250:-0.04169 251:-0.147803 252:-0.287308 253:-0.261399 254:-0.345823 255:-0.537572 
-1 1:0.795279 3:0.781163 4:0.772795 5:0.770664 6:0.764479 7:0.757048 8:0.754158 9:0.754789 10:0.758137 11:0.766404 12:0.76845 13:0.767855 14:0.769546 15:0.777828 16:0.789147 17:0.796031 18:0.799573 19:0.80744 20:0.824478 21:0.839461 22:0.848579 23:0.860325 24:0.877935 25:0.895568 26:0.911723 27:0.93028 28:0.948907 29:0.967025 30:0.981668 31:0.994732 32:1 33:1 34:0.993749 35:0.972499 36:0.925826 37:0.864489 38:0.784329 39:0.690651 40:0.581276 41:0.484071 42:0.382233 43:0.289851 44:0.135124 45:0.136648 46:0.0764884 47:0.0377402 48:-0.0140808 49:-0.0530015 50:-0.0835614 51:-0.112317 52:-0.135472 53:-0.162151 54:-0.182583 55:-0.15243 56:-0.214793 57:-0.220342 58:-0.234361 59:-0.238869 60:-0.246666 61:-0.257892 62:-0.176168 63:-0.249744 64:-0.245359 65:-0.243008 66:-0.248763 67:-0.239027 68:-0.235455 69:-0.233845 70:-0.21922 71:-0.223983 72:-0.225618 73:-0.213627 74:-0.20556 75:-0.200142 76:-0.191554 77:-0.190015 78:-0.185797 79:-0.185204 80:-0.173994 81:-0.155997 82:-0.144004 83:-0.113531 84:-0.0891499 85:-0.0518862 86:0.0831538 87:-0.0291973 88:-0.120196 89:-0.179064 90:-0.216894 91:-0.237206 92:-0.23069 93:-0.20683 94:-0.178427 95:-0.14011 96:-0.147606 97:-0.151366 98:-0.142345 99:-0.10476 100:-0.0497286 101:0.00624246 102:0.142264 103:0.602202 104:1 105:0.961779 106:0.613569 107:0.48307 108:0.384053 109:0.358669 110:0.343615 111:0.29969 112:0.247382 113:0.20933 114:0.185466 115:0.168179 116:0.157082 117:0.117327 118:0.114598 119:0.111782 120:0.0987911 121:0.0967433 122:0.103395 123:0.109029 124:0.125298 125:0.118155 126:0.0667642 127:-0.0348239 128:-0.0965069 129:-0.121578 130:-0.158594 131:-0.189477 132:-0.237557 133:-0.272727 134:-0.303423 135:-0.374674 136:-0.445498 137:-0.644994 138:-0.696105 139:-0.709722 140:-0.691448 141:-0.699316 142:-0.711745 143:-0.605328 144:-0.349341 145:-0.309814 146:-0.486133 147:-0.784272 148:-0.805432 149:-0.832995 150:-0.812972 151:-0.848727 152:-0.620103 153:-0.442343 154:-1 155:-1 156:-1 157:-1 158:-1 159:-1 160:-1 161:-1 162:-0.793141 163:-0.535768 164:-0.303377 165:-0.160104 166:-0.104094 167:0.177555 168:0.307517 169:0.332019 170:0.314021 171:0.360005 172:0.338068 173:0.213836 174:0.20496 175:0.370925 176:0.462921 177:0.501034 178:0.519979 179:0.523304 180:0.549695 181:0.54336 182:0.499444 183:0.452702 184:0.369801 185:0.263454 186:0.13463 187:0.101213 188:0.221732 189:0.479533 190:0.704769 191:0.748284 192:0.774753 193:0.793752 194:0.672411 195:0.330911 196:0.206135 197:0.467482 198:0.804399 199:0.884766 200:1 201:1 202:1 203:1 204:1 205:1 206:1 207:1 208:1 209:1 210:0.588943 211:0.632295 212:1 213:1 214:1 215:1 216:1 217:1 218:1 219:1 220:1 221:0.685679 222:0.459137 223:0.166759 224:-0.0652711 225:-0.219694 226:-0.410502 227:-0.576885 228:-0.562433 229:-0.536574 230:-0.536031 231:-0.57706 232:-0.60161 233:-0.610457 234:-0.601097 235:-0.582521 236:-0.568294 237:-0.510729 238:-0.452734 239:-0.531357 240:-0.539239 241:-0.537079 242:-0.548062 243:-0.519574 244:-0.493295 245:-0.588336 246:-0.652745 247:-0.595298 248:-0.617671 249:-0.637373 250:-0.572322 251:-0.609442 252:-0.724057 253:-0.646903 254:-0.711723 255:-0.907514 
-0.6249450713179545 1:0.993809 3:0.985382 4:0.974801 5:0.968461 6:0.95773 7:0.945799 8:0.935999 9:0.926282 10:0.915273 11:0.905907 12:0.895578 13:0.884785 14:0.874673 15:0.869447 16:0.867237 17:0.86606 18:0.865713 19:0.863428 20:0.865883 21:0.872338 22:0.875866 23:0.878765 24:0.890642 25:0.908301 26:0.923069 27:0.934102 28:0.940046 29:0.946542 30:0.960067 31:0.977809 32:0.984355 33:0.986791 34:0.993241 35:0.999756 36:1 37:0.999848 38:0.984127 39:0.953393 40:0.901173 41:0.847969 42:0.763002 43:0.666415 44:0.471026 45:0.463621 46:0.367789 47:0.290722 48:0.209585 49:0.1378 50:0.074067 51:0.0211529 52:-0.0169328 53:-0.0569689 54:-0.0937197 55:-0.0836644 56:-0.159609 57:-0.179636 58:-0.206289 59:-0.219934 60:-0.228501 61:-0.237977 62:-0.163131 63:-0.244197 64:-0.240956 65:-0.237797 66:-0.246918 67:-0.239978 68:-0.235879 69:-0.233558 70:-0.219123 71:-0.22407 72:-0.22563 73:-0.213593 74:-0.205582 75:-0.200164 76:-0.191476 77:-0.189992 78:-0.186068 79:-0.185136 80:-0.173203 81:-0.155612 82:-0.142799 83:-0.10696 84:-0.0742006 85:-0.0287089 86:0.112986 87:-0.00393597 88:-0.0961329 89:-0.151132 90:-0.18344 91:-0.199765 92:-0.193422 93:-0.170682 94:-0.138187 95:-0.094266 96:-0.10354 97:-0.108474 98:-0.10056 99:-0.08559 100:-0.0705107 101:-0.0292437 102:0.0115857 103:0.0491322 104:0.0214035 105:0.0347674 106:0.0475725 107:0.10444 108:0.0828594 109:0.123292 110:0.188494 111:0.231908 112:0.276443 113:0.346721 114:0.444861 115:0.606933 116:0.845057 117:0.96362 118:0.95866 119:0.800424 120:0.601422 121:0.454155 122:0.37338 123:0.312968 124:0.271473 125:0.225873 126:0.158233 127:0.0469356 128:-0.0340726 129:-0.0838344 130:-0.139396 131:-0.178504 132:-0.231764 133:-0.28011 134:-0.325127 135:-0.400962 136:-0.472275 137:-0.675462 138:-0.724571 139:-0.732074 140:-0.720632 141:-0.738811 142:-0.749289 143:-0.628106 144:-0.361052 145:-0.315238 146:-0.473449 147:-0.725629 148:-0.691856 149:-0.664371 150:-0.590567 151:-0.541291 152:-0.250412 153:-0.00307586 154:-0.220501 155:-0.0522265 156:0.0592576 157:0.0570408 158:-0.0406455 159:-0.174793 160:-0.322432 161:-0.470581 162:-0.448268 163:-0.363806 164:-0.280459 165:-0.226799 166:-0.23722 167:-0.0906595 168:-0.0564153 169:-0.134375 170:-0.298839 171:-0.354313 172:-0.57931 173:-0.833134 174:-0.775085 175:-0.820791 176:-0.91532 177:-1 178:-1 179:-1 180:-0.845505 181:-0.699864 182:-0.6083 183:-0.501446 184:-0.471246 185:-0.437675 186:-0.421298 187:-0.396994 188:-0.302136 189:-0.12016 190:0.0607326 191:0.118618 192:0.139778 193:0.1455 194:0.0504458 195:-0.189563 196:-0.294123 197:-0.172518 198:-0.0126992 199:-0.00170549 200:0.0166881 201:-0.0263928 202:-0.0657289 203:-0.102553 204:-0.136683 205:-0.168624 206:-0.161698 207:-0.106955 208:0.0319138 209:0.159923 210:-0.00893626 211:0.00370582 212:0.222872 213:0.178261 214:0.0921486 215:0.05629 216:0.042583 217:-0.0103306 218:-0.0471723 219:-0.00664773 220:0.27596 221:0.422024 222:0.424689 223:0.267188 224:0.107775 225:-0.00772268 226:-0.120927 227:-0.210918 228:-0.129403 229:-0.037168 230:-0.0217722 231:-0.112483 232:-0.172976 233:-0.207979 234:-0.224387 235:-0.245228 236:-0.290003 237:-0.292724 238:-0.32751 239:-0.543598 240:-0.71659 241:-0.878099 242:-0.977864 243:-0.986943 244:-0.933837 245:-0.900784 246:-0.886477 247:-0.77512 248:-0.742746 249:-0.694719 250:-0.570792 251:-0.56606 252:-0.645653 253:-0.547278 254:-0.590134 255:-0.757225 
-0.5733966149443552 1:-0.949171 3:-0.949812 4:-0.948776 5:-0.949097 6:-0.954924 7:-0.959344 8:-0.958573 9:-0.964112 10:-0.97443 11:-0.94764 12:-0.934802 13:-0.930019 14:-0.924337 15:-0.917907 16:-0.916882 17:-0.915876 18:-0.904417 19:-0.884065 20:-0.859046 21:-0.826153 22:-0.782809 23:-0.730522 24:-0.668779 25:-0.596183 26:-0.515131 27:-0.367306 28:-0.242315 29:-0.168446 30:-0.105965 31:-0.0530978 32:-0.0153916 33:0.00692403 34:0.0215854 35:0.0353173 36:0.0433408 37:0.0442243 38:0.0359401 39:0.0238253 40:0.00483341 41:-0.00269569 42:-0.0108997 43:-0.0157272 44:-0.0840042 45:-0.0386658 46:-0.0499703 47:-0.0426051 48:-0.0544791 49:-0.0598273 50:-0.0605828 51:-0.0604194 52:-0.0606396 53:-0.0696735 54:-0.072183 55:-0.0288326 56:-0.0711332 57:-0.0654488 58:-0.0701239 59:-0.0711085 60:-0.0756321 61:-0.0794404 62:-0.00506949 63:-0.0653068 64:-0.0537991 65:-0.0486141 66:-0.0571013 67:-0.0494178 68:-0.0444961 69:-0.0436084 70:-0.0334468 71:-0.0428111 72:-0.0475499 73:-0.0362999 74:-0.0279803 75:-0.0267403 76:-0.0248587 77:-0.0237896 78:-0.0165878 79:-0.0140174 80:-0.00180676 81:0.0126062 82:0.0194901 83:0.055232 84:0.0868548 85:0.130912 86:0.288562 87:0.146329 88:0.0294773 89:-0.0468694 90:-0.092245 91:-0.11513 92:-0.116687 93:-0.10446 94:-0.0810881 95:-0.0457637 96:-0.0669697 97:-0.0832493 98:-0.0860554 99:-0.0811987 100:-0.0752468 101:-0.0453239 102:-0.02085 103:0.00112517 104:-0.0338205 105:-0.0336613 106:-0.0416078 107:-0.00576432 108:-0.0347452 109:-0.0174631 110:0.00943851 111:0.0160511 112:0.0215767 113:0.0455187 114:0.0851046 115:0.141089 116:0.244497 117:0.382218 118:0.638354 119:0.909977 120:1 121:0.834279 122:0.616158 123:0.49218 124:0.436629 125:0.375241 126:0.29219 127:0.181095 128:0.110579 129:0.0676064 130:0.0138177 131:-0.0252998 132:-0.0799997 133:-0.126473 134:-0.162942 135:-0.225926 136:-0.289501 137:-0.483021 138:-0.52473 139:-0.531838 140:-0.506053 141:-0.532896 142:-0.541487 143:-0.427836 144:-0.186945 145:-0.139226 146:-0.266309 147:-0.47621 148:-0.440055 149:-0.395228 150:-0.305509 151:-0.242874 152:0.00794804 153:0.21725 154:0.0623543 155:0.20359 156:0.296992 157:0.299382 158:0.240361 159:0.181225 160:0.118181 161:0.0358039 162:0.0674776 163:0.157717 164:0.236195 165:0.125067 166:0.104499 167:0.387165 168:0.45873 169:0.422841 170:0.332127 171:0.295916 172:0.193037 173:-0.000726115 174:-0.0455372 175:0.0059425 176:-0.026854 177:-0.131605 178:-0.284813 179:-0.55883 180:-0.811122 181:-0.97923 182:-0.9849 183:-0.818048 184:-0.685563 185:-0.562188 186:-0.498286 187:-0.453854 188:-0.348909 189:-0.163098 190:0.0188208 191:0.0783404 192:0.095759 193:0.0889645 194:-0.0162011 195:-0.248036 196:-0.349769 197:-0.250611 198:-0.126604 199:-0.130702 200:-0.12086 201:-0.163677 202:-0.202462 203:-0.237624 204:-0.279407 205:-0.328319 206:-0.320636 207:-0.243029 208:-0.0763807 209:0.0726369 210:-0.0637731 211:-0.0505393 212:0.154461 213:0.115086 214:0.0424132 215:0.0169347 216:0.00616901 217:-0.0415358 218:-0.0685391 219:-0.0189988 220:0.270766 221:0.423378 222:0.43262 223:0.285309 224:0.135867 225:0.0281639 226:-0.0695496 227:-0.142178 228:-0.0375361 229:0.0907637 230:0.141104 231:0.0702829 232:0.035405 233:0.0350523 234:0.0699357 235:0.118635 236:0.154887 237:0.280286 238:0.40102 239:0.309415 240:0.317202 241:0.381157 242:0.432484 243:0.637031 244:0.985253 245:1 246:1 247:1 248:0.83878 249:0.54889 250:0.360106 251:0.193993 252:0.0290192 253:0.00246057 254:-0.107721 255:-0.294798 
-0.7865502888279352 1:-0.669988 3:-0.661572 4:-0.65354 5:-0.642033 6:-0.635297 7:-0.628424 8:-0.616289 9:-0.609133 10:-0.608712 11:-0.58062 12:-0.563369 13:-0.552443 14:-0.544134 15:-0.537538 16:-0.533412 17:-0.52724 18:-0.518166 19:-0.513524 20:-0.510268 21:-0.502242 22:-0.495701 23:-0.496014 24:-0.497854 25:-0.498955 26:-0.501233 27:-0.43791 28:-0.391396 29:-0.387232 30:-0.37329 31:-0.354619 32:-0.343858 33:-0.34095 34:-0.341164 35:-0.339499 36:-0.334421 37:-0.329715 38:-0.330257 39:-0.329333 40:-0.330608 41:-0.327118 42:-0.326608 43:-0.321458 44:-0.361274 45:-0.324502 46:-0.322053 47:-0.287982 48:-0.280783 49:-0.275085 50:-0.270451 51:-0.265153 52:-0.255684 53:-0.253759 54:-0.248475 55:-0.193823 56:-0.237543 57:-0.225456 58:-0.226469 59:-0.221035 60:-0.214605 61:-0.208055 62:-0.119848 63:-0.185205 64:-0.170775 65:-0.155571 66:-0.153787 67:-0.14389 68:-0.139933 69:-0.132646 70:-0.109492 71:-0.105794 72:-0.103464 73:-0.0921543 74:-0.0812175 75:-0.068493 76:-0.0536214 77:-0.0452203 78:-0.0330627 79:-0.0250795 80:-0.00755399 81:0.0159251 82:0.0363698 83:0.0832154 84:0.121745 85:0.176449 86:0.357792 87:0.227404 88:0.123691 89:0.0602764 90:0.0205255 91:-0.00105019 92:0.00902818 93:0.0447189 94:0.0938184 95:0.156628 96:0.158209 97:0.171845 98:0.206472 99:0.258002 100:0.323097 101:0.439557 102:0.577974 103:0.764933 104:0.876561 105:1 106:1 107:0.949083 108:0.69197 109:0.565717 110:0.497923 111:0.399273 112:0.303295 113:0.239879 114:0.192487 115:0.148792 116:0.122314 117:0.0781724 118:0.0649405 119:0.0490246 120:0.0286771 121:0.0230285 122:0.0254952 123:0.0262909 124:0.036999 125:0.0269015 126:-0.026827 127:-0.139589 128:-0.217195 129:-0.253169 130:-0.298635 131:-0.335856 132:-0.387245 133:-0.430186 134:-0.471326 135:-0.551491 136:-0.63391 137:-0.860536 138:-0.92909 139:-0.936986 140:-0.931855 141:-0.930118 142:-0.933191 143:-0.800593 144:-0.506118 145:-0.45454 146:-0.634573 147:-0.932232 148:-0.912296 149:-0.884594 150:-0.79524 151:-0.742283 152:-0.421901 153:-0.144677 154:-0.402592 155:-0.23058 156:-0.122192 157:-0.138785 158:-0.268549 159:-0.450176 160:-0.659814 161:-0.888654 162:-0.925314 163:-0.903368 164:-0.885202 165:-0.70961 166:-0.794763 167:-0.96229 168:-0.994377 169:-0.960178 170:-0.834547 171:-0.496381 172:-0.384631 173:-0.338536 174:-0.149794 175:0.0601363 176:0.191303 177:0.266 178:0.315704 179:0.332471 180:0.376014 181:0.383561 182:0.347948 183:0.310005 184:0.231279 185:0.137559 186:0.0274124 187:-0.00234086 188:0.102003 189:0.328145 190:0.523611 191:0.548351 192:0.552187 193:0.550225 194:0.421678 195:0.104602 196:-0.0260858 197:0.152666 198:0.380078 199:0.402054 200:0.441257 201:0.39238 202:0.342318 203:0.29361 204:0.256946 205:0.226799 206:0.210275 207:0.226759 208:0.320705 209:0.409655 210:0.15904 211:0.165757 212:0.41207 213:0.374215 214:0.302937 215:0.263359 216:0.237686 217:0.186845 218:0.182909 219:0.320323 220:0.717335 221:0.805818 222:0.797985 223:0.651909 224:0.452959 225:0.301927 226:0.236702 227:0.197628 228:0.329212 229:0.498086 230:0.56269 231:0.437004 232:0.332919 233:0.339413 234:0.462006 235:0.30045 236:-0.296063 237:-0.637218 238:-0.51243 239:-0.485294 240:-0.515706 241:-0.532779 242:-0.536547 243:-0.508796 244:-0.491274 245:-0.588227 246:-0.650949 247:-0.593431 248:-0.616147 249:-0.635778 250:-0.571923 251:-0.609516 252:-0.719786 253:-0.636255 254:-0.697156 255:-0.895954 
-1 1:0.968692 3:0.970481 4:0.966216 5:0.966845 6:0.962176 7:0.955275 8:0.950907 9:0.947908 10:0.943669 11:0.937518 12:0.927556 13:0.919069 14:0.914374 15:0.909638 16:0.895958 17:0.879368 18:0.872906 19:0.868215 20:0.85461 21:0.833314 22:0.816405 23:0.806501 24:0.791358 25:0.763404 26:0.737024 27:0.735448 28:0.733828 29:0.712299 30:0.68066 31:0.650283 32:0.616811 33:0.581 34:0.548219 35:0.52379 36:0.50152 37:0.47143 38:0.421347 39:0.374419 40:0.33997 41:0.318194 42:0.267381 43:0.1997 44:0.0584201 45:0.0579218 46:0.00234828 47:-0.0300854 48:-0.0865209 49:-0.143858 50:-0.196475 51:-0.240476 52:-0.274188 53:-0.311981 54:-0.342983 55:-0.315586 56:-0.391058 57:-0.398837 58:-0.419506 59:-0.436144 60:-0.454383 61:-0.471942 62:-0.386226 63:-0.488752 64:-0.494026 65:-0.49345 66:-0.509553 67:-0.513799 68:-0.518484 69:-0.521043 70:-0.50979 71:-0.519041 72:-0.524622 73:-0.512836 74:-0.504392 75:-0.499445 76:-0.490855 77:-0.493119 78:-0.490159 79:-0.484075 80:-0.471898 81:-0.460094 82:-0.449759 83:-0.420838 84:-0.392436 85:-0.356653 86:-0.262535 87:-0.336256 88:-0.392861 89:-0.423842 90:-0.439037 91:-0.445276 92:-0.434163 93:-0.40884 94:-0.380022 95:-0.346028 96:-0.35231 97:-0.352315 98:-0.336889 99:-0.312868 100:-0.291338 101:-0.253599 102:-0.218461 103:-0.184424 104:-0.197529 105:-0.17728 106:-0.158367 107:-0.103688 108:-0.111711 109:-0.071612 110:-0.0155792 111:0.0143808 112:0.0345493 113:0.0715767 114:0.123598 115:0.186504 116:0.271482 117:0.338648 118:0.454289 119:0.560651 120:0.656312 121:0.761973 122:0.861331 123:0.925787 124:0.979932 125:1 126:0.992002 127:0.980683 128:0.980167 129:0.933788 130:0.868652 131:0.840673 132:0.78356 133:0.717809 134:0.667067 135:0.613992 136:0.56947 137:0.420682 138:0.376967 139:0.316266 140:0.376055 141:0.292566 142:0.234648 143:0.242423 144:0.322592 145:0.310118 146:0.216428 147:0.0892198 148:0.117989 149:0.147786 150:0.196274 151:0.229637 152:0.386504 153:0.515954 154:0.421035 155:0.512297 156:0.576109 157:0.584525 158:0.555407 159:0.52294 160:0.485955 161:0.442279 162:0.464709 163:0.51906 164:0.566135 165:0.344889 166:0.308393 167:0.646535 168:0.711364 169:0.674466 170:0.606966 171:0.577449 172:0.516414 173:0.336174 174:0.256556 175:0.37168 176:0.406088 177:0.382295 178:0.339071 179:0.266575 180:0.217767 181:0.130276 182:0.00311016 183:-0.111353 184:-0.287796 185:-0.460942 186:-0.609542 187:-0.736044 188:-0.843008 189:-0.943819 190:-1 191:-1 192:-1 193:-1 194:-1 195:-1 196:-1 197:-1 198:-1 199:-1 200:-1 201:-1 202:-1 203:-1 204:-1 205:-1 206:-0.934196 207:-0.788697 208:-0.510961 209:-0.260531 210:-0.278479 211:-0.262375 212:-0.0848878 213:-0.10675 214:-0.17419 215:-0.183108 216:-0.168869 217:-0.206276 218:-0.251504 219:-0.258302 220:-0.0139385 221:0.203817 222:0.241175 223:0.107986 224:-0.0105847 225:-0.0952769 226:-0.204126 227:-0.287258 228:-0.188236 229:-0.0663274 230:-0.0111616 231:-0.0657321 232:-0.092526 233:-0.088243 234:-0.0513426 235:-0.00247537 236:0.0344524 237:0.153136 238:0.268315 239:0.180183 240:0.177438 241:0.213913 242:0.242219 243:0.386537 244:0.541613 245:0.392802 246:0.39005 247:0.621045 248:0.847715 249:0.960141 250:1 251:0.956059 252:0.94388 253:0.988854 254:1 255:1 
-0.6030429712134381 1:0.899513 3:0.989776 4:1 5:0.951358 6:0.778164 7:0.431718 8:0.0210226 9:-0.269584 10:-0.41162 11:-0.473062 12:-0.537062 13:-0.590854 14:-0.628123 15:-0.658757 16:-0.691557 17:-0.721727 18:-0.743343 19:-0.759207 20:-0.772777 21:-0.787255 22:-0.805937 23:-0.826396 24:-0.843934 25:-0.858591 26:-0.872341 27:-0.802726 28:-0.753035 29:-0.755336 30:-0.743909 31:-0.724758 32:-0.712892 33:-0.709262 34:-0.703904 35:-0.694073 36:-0.684006 37:-0.674169 38:-0.663815 39:-0.655001 40:-0.653676 41:-0.648733 42:-0.64307 43:-0.638021 44:-0.660434 45:-0.638627 46:-0.633104 47:-0.596189 48:-0.590762 49:-0.582471 50:-0.57787 51:-0.574207 52:-0.564926 53:-0.564175 54:-0.559481 55:-0.493492 56:-0.550198 57:-0.537171 58:-0.540402 59:-0.535913 60:-0.530757 61:-0.525199 62:-0.414268 63:-0.497472 64:-0.486185 65:-0.472193 66:-0.474656 67:-0.464213 68:-0.453221 69:-0.441057 70:-0.420298 71:-0.424059 72:-0.422388 73:-0.400163 74:-0.379751 75:-0.363103 76:-0.345679 77:-0.340935 78:-0.332547 79:-0.321403 80:-0.301007 81:-0.279916 82:-0.263672 83:-0.226072 84:-0.191725 85:-0.149601 86:-0.0258574 87:-0.124464 88:-0.201448 89:-0.248565 90:-0.277421 91:-0.293267 92:-0.287493 93:-0.263544 94:-0.231127 95:-0.192814 96:-0.20633 97:-0.214697 98:-0.207937 99:-0.193232 100:-0.178794 101:-0.141691 102:-0.106258 103:-0.0728966 104:-0.0932531 105:-0.0762545 106:-0.0632534 107:-0.0136614 108:-0.0344771 109:-0.00132877 110:0.0525643 111:0.0847383 112:0.112865 113:0.162443 114:0.22874 115:0.307863 116:0.420087 117:0.528279 118:0.699634 119:0.843652 120:0.937935 121:0.990322 122:0.992881 123:0.935725 124:0.870323 125:0.789617 126:0.696686 127:0.598361 128:0.531071 129:0.461484 130:0.383609 131:0.332635 132:0.258912 133:0.187216 134:0.130871 135:0.0596177 136:-0.00714712 137:-0.196522 138:-0.252237 139:-0.287089 140:-0.259905 141:-0.313548 142:-0.350805 143:-0.275336 144:-0.0784013 145:-0.0516759 146:-0.182576 147:-0.388526 148:-0.365456 149:-0.342353 150:-0.280207 151:-0.237985 152:7.44896e-06 153:0.200697 154:0.026943 155:0.15714 156:0.243354 157:0.240492 158:0.165683 159:0.06921 160:-0.0382612 161:-0.155779 162:-0.146165 163:-0.0830079 164:-0.012632 165:-0.0405994 166:-0.0533861 167:0.16511 168:0.218205 169:0.16214 170:0.0381436 171:0.000225374 172:-0.14707 173:-0.359199 174:-0.353061 175:-0.334025 176:-0.388185 177:-0.501363 178:-0.637718 179:-0.843682 180:-0.94115 181:-1 182:-1 183:-0.87539 184:-0.788004 185:-0.665824 186:-0.567251 187:-0.497152 188:-0.373568 189:-0.165047 190:0.0435579 191:0.124128 192:0.164518 193:0.190086 194:0.110467 195:-0.127088 196:-0.227294 197:-0.0891374 198:0.0896266 199:0.12233 200:0.174762 201:0.140991 202:0.0969858 203:0.0589761 204:0.0252289 205:-0.0188689 206:-0.0346705 207:0.0079838 208:0.139215 209:0.255979 210:0.0544679 211:0.0596942 212:0.281365 213:0.23869 214:0.159776 215:0.121016 216:0.100967 217:0.0492328 218:0.0238154 219:0.0952005 220:0.419963 221:0.55683 222:0.560188 223:0.404206 224:0.22887 225:0.102084 226:0.00720739 227:-0.0644319 228:0.0375768 229:0.164777 230:0.206766 231:0.116354 232:0.0634758 233:0.0493929 234:0.0716523 235:0.104713 236:0.121374 237:0.220941 238:0.316156 239:0.208522 240:0.179256 241:0.167157 242:0.164328 243:0.346506 244:0.446658 245:-0.130147 246:-0.801718 247:-1 248:-0.705105 249:-0.328486 250:-0.222781 251:-0.323777 252:-0.430002 253:-0.339309 254:-0.379857 255:-0.572254 
-1 1:0.833615 3:0.858204 4:0.86808 5:0.882152 6:0.890358 7:0.898426 8:0.91237 9:0.926628 10:0.935722 11:0.944428 12:0.956094 13:0.970439 14:0.980549 15:0.98636 16:0.989507 17:0.992983 18:0.998456 19:1 20:1 21:0.999028 22:0.995019 23:0.988089 24:0.980773 25:0.970938 26:0.957072 27:0.94303 28:0.932333 29:0.919362 30:0.892069 31:0.849809 32:0.801876 33:0.766732 34:0.744629 35:0.724832 36:0.700365 37:0.679154 38:0.652232 39:0.622768 40:0.587913 41:0.570159 42:0.544295 43:0.517894 44:0.398948 45:0.458771 46:0.43472 47:0.42312 48:0.392974 49:0.346372 50:0.290713 51:0.241769 52:0.209166 53:0.176673 54:0.145315 55:0.14981 56:0.08631 57:0.06569 58:0.0368177 59:0.0144844 60:-0.00483896 61:-0.0211743 62:0.0344982 63:-0.0417059 64:-0.0491362 65:-0.0599353 66:-0.0806863 67:-0.0863993 68:-0.0963923 69:-0.107088 70:-0.104948 71:-0.122449 72:-0.13803 73:-0.140617 74:-0.144473 75:-0.148204 76:-0.149102 77:-0.158098 78:-0.162603 79:-0.166001 80:-0.159781 81:-0.155764 82:-0.160919 83:-0.141466 84:-0.12172 85:-0.089473 86:0.0293663 87:-0.0900403 88:-0.183641 89:-0.242865 90:-0.283054 91:-0.311653 92:-0.320475 93:-0.314276 94:-0.302111 95:-0.280622 96:-0.300759 97:-0.318842 98:-0.329788 99:-0.334501 100:-0.335407 101:-0.315547 102:-0.298589 103:-0.286156 104:-0.31653 105:-0.319803 106:-0.327147 107:-0.308625 108:-0.336485 109:-0.324646 110:-0.295518 111:-0.277319 112:-0.265742 113:-0.245151 114:-0.198764 115:-0.0858336 116:0.131839 117:0.393736 118:0.724915 119:0.954085 120:0.976989 121:0.860173 122:0.735694 123:0.667738 124:0.651238 125:0.623704 126:0.571741 127:0.502675 128:0.464742 129:0.428169 130:0.382447 131:0.362839 132:0.318052 133:0.270748 134:0.237561 135:0.192077 136:0.14837 137:-0.0192898 138:-0.0633319 139:-0.0943665 140:-0.042061 141:-0.0951284 142:-0.137007 143:-0.0908007 144:0.059289 145:0.0702021 146:-0.047224 147:-0.224703 148:-0.198679 149:-0.171284 150:-0.109905 151:-0.0655677 152:0.147229 153:0.324238 154:0.184142 155:0.299997 156:0.37831 157:0.381785 158:0.32732 159:0.257614 160:0.181114 161:0.103983 162:0.136599 163:0.216184 164:0.295165 165:0.174415 166:0.150483 167:0.432799 168:0.494161 169:0.463412 170:0.394133 171:0.375064 172:0.289177 173:0.104044 174:0.0633379 175:0.163011 176:0.189948 177:0.164311 178:0.120636 179:0.0332616 180:-0.0247744 181:-0.12421 182:-0.26779 183:-0.402926 184:-0.637222 185:-0.857523 186:-0.961833 187:-0.972465 188:-0.889082 189:-0.675104 190:-0.356383 191:-0.124269 192:0.00747736 193:0.0853021 194:0.046423 195:-0.156118 196:-0.231012 197:-0.0589337 198:0.167042 199:0.226257 200:0.292506 201:0.264696 202:0.230202 203:0.201005 204:0.177241 205:0.151244 206:0.151062 207:0.192868 208:0.300702 209:0.394687 210:0.152686 211:0.162548 212:0.405979 213:0.364348 214:0.290835 215:0.249777 216:0.222274 217:0.169509 218:0.162135 219:0.289069 220:0.672766 221:0.766218 222:0.751848 223:0.587652 224:0.382988 225:0.235811 226:0.162298 227:0.113256 228:0.226483 229:0.361163 230:0.396257 231:0.283387 232:0.21753 233:0.197413 234:0.21596 235:0.240908 236:0.24449 237:0.338566 238:0.425584 239:0.295952 240:0.255175 241:0.254352 242:0.236426 243:0.30156 244:0.313957 245:-0.00856495 246:-0.336948 247:-0.648081 248:-1 249:-1 250:-0.685083 251:-0.554901 252:-0.625535 253:-0.565999 254:-0.633113 255:-0.757225 
-1 1:0.503037 3:0.508592 4:0.510919 5:0.518501 6:0.52211 7:0.524891 8:0.530413 9:0.53395 10:0.535065 11:0.547348 12:0.559353 13:0.567702 14:0.570689 15:0.574698 16:0.581072 17:0.589965 18:0.603406 19:0.614643 20:0.622358 21:0.630814 22:0.644363 23:0.661762 24:0.680084 25:0.69771 26:0.717332 27:0.751009 28:0.782658 29:0.807666 30:0.831261 31:0.856755 32:0.879442 33:0.903195 34:0.928008 35:0.94909 36:0.96415 37:0.984414 38:0.996633 39:1 40:0.990293 41:0.994711 42:0.980169 43:0.955695 44:0.805917 45:0.881521 46:0.840112 47:0.795899 48:0.743514 49:0.689776 50:0.638311 51:0.585152 52:0.531987 53:0.47197 54:0.409542 55:0.373717 56:0.290496 57:0.243673 58:0.19389 59:0.151488 60:0.111215 61:0.0742695 62:0.108483 63:0.0266611 64:0.0102759 65:-0.01159 66:-0.0424832 67:-0.0575643 68:-0.0765066 69:-0.0942771 70:-0.0983749 71:-0.123213 72:-0.143902 73:-0.145682 74:-0.146854 75:-0.151011 76:-0.153355 77:-0.160881 78:-0.161892 79:-0.161641 80:-0.15026 81:-0.139553 82:-0.139252 83:-0.115425 84:-0.0913446 85:-0.0505632 86:0.088839 87:-0.0255509 88:-0.123833 89:-0.188766 90:-0.226861 91:-0.247028 92:-0.248462 93:-0.237159 94:-0.217315 95:-0.186876 96:-0.206883 97:-0.225583 98:-0.231794 99:-0.227888 100:-0.221812 101:-0.195547 102:-0.174657 103:-0.159518 104:-0.195117 105:-0.198034 106:-0.204454 107:-0.180725 108:-0.215498 109:-0.207147 110:-0.185462 111:-0.186217 112:-0.199193 113:-0.203011 114:-0.198785 115:-0.189314 116:-0.166231 117:-0.15885 118:-0.124149 119:-0.0790213 120:-0.0369437 121:0.0252114 122:0.10884 123:0.201354 124:0.317164 125:0.445436 126:0.59907 127:0.777325 128:0.952583 129:1 130:0.93005 131:0.821311 132:0.661387 133:0.516584 134:0.40656 135:0.299928 136:0.206384 137:-0.00171521 138:-0.0856967 139:-0.155077 140:-0.142399 141:-0.212771 142:-0.259177 143:-0.198905 144:-0.020514 145:0.00427042 146:-0.11477 147:-0.303947 148:-0.280327 149:-0.257834 150:-0.198708 151:-0.15265 152:0.0811266 153:0.272343 154:0.110771 155:0.224908 156:0.307918 157:0.316506 158:0.265685 159:0.201713 160:0.133244 161:0.0660623 162:0.116525 163:0.21523 164:0.305723 165:0.187037 166:0.173367 167:0.484959 168:0.565693 169:0.547896 170:0.497996 171:0.49528 172:0.442744 173:0.271908 174:0.214476 175:0.350311 176:0.417864 177:0.424826 178:0.404109 179:0.360915 180:0.351074 181:0.312969 182:0.234524 183:0.148784 184:0.00440264 185:-0.138779 186:-0.288382 187:-0.484887 188:-0.782634 189:-1 190:-0.713263 191:-0.176319 192:0.122791 193:0.17492 194:0.080955 195:-0.138288 196:-0.219639 197:-0.0626094 198:0.125828 199:0.137644 200:0.163508 201:0.123535 202:0.0795596 203:0.0275433 204:-0.0192144 205:-0.0533114 206:-0.0542133 207:-0.0217169 208:0.0919432 209:0.208246 210:0.0235145 211:0.0279407 212:0.237717 213:0.188189 214:0.102901 215:0.065111 216:0.0503311 217:-0.000996451 218:-0.0363492 219:0.00905301 220:0.304486 221:0.452728 222:0.453472 223:0.294564 224:0.136008 225:0.0224151 226:-0.086523 227:-0.175395 228:-0.0836928 229:0.0345718 230:0.074002 231:-0.0084282 232:-0.057336 233:-0.0706828 234:-0.0511643 235:-0.0222894 236:-0.00909501 237:0.0781367 238:0.157976 239:0.0436192 240:0.0127416 241:0.0127307 242:-0.00651232 243:0.0451352 244:0.0771176 245:-0.124233 246:-0.276583 247:-0.380282 248:-0.678776 249:-0.96527 250:-1 251:-1 252:-0.998465 253:-0.757594 254:-0.712666 255:-0.895954 
-1 1:0.999909 3:1 4:0.995879 5:0.999253 6:0.999777 7:0.99929 8:1 9:0.997966 10:0.992422 11:0.989058 12:0.989142 13:0.990069 14:0.989016 15:0.989451 16:0.989711 17:0.988901 18:0.989565 19:0.988317 20:0.98829 21:0.989504 22:0.989469 23:0.988269 24:0.988641 25:0.989179 26:0.989134 27:0.988313 28:0.988405 29:0.989312 30:0.98899 31:0.990959 32:0.987478 33:0.981539 34:0.97875 35:0.979108 36:0.976566 37:0.97754 38:0.970526 39:0.958715 40:0.940601 41:0.944759 42:0.936163 43:0.917591 44:0.777265 45:0.869914 46:0.856098 47:0.82828 48:0.777102 49:0.732701 50:0.710671 51:0.676023 52:0.606789 53:0.531898 54:0.493568 55:0.486767 56:0.404135 57:0.330259 58:0.275458 59:0.247841 60:0.210467 61:0.157419 62:0.169346 63:0.0817026 64:0.0614216 65:0.0383784 66:0.0100773 67:0.000316984 68:-0.0128042 69:-0.0252279 70:-0.0238123 71:-0.0422651 72:-0.0565459 73:-0.0532668 74:-0.049346 75:-0.0473781 76:-0.044451 77:-0.0481157 78:-0.0481261 79:-0.0489815 80:-0.0368407 81:-0.0221205 82:-0.0154984 83:0.0187467 84:0.0494817 85:0.0921059 86:0.242858 87:0.106113 88:-0.00155206 89:-0.0691997 90:-0.111981 91:-0.135809 92:-0.134572 93:-0.116893 94:-0.0918111 95:-0.0583046 96:-0.0809599 97:-0.0979236 98:-0.098893 99:-0.0893756 100:-0.0802858 101:-0.0506494 102:-0.0259178 103:-0.00321243 104:-0.039157 105:-0.0372403 106:-0.0395606 107:-0.00406672 108:-0.0410044 109:-0.0288917 110:-0.00272379 111:0.000608853 112:-0.00318449 113:0.00321849 114:0.0140944 115:0.0284846 116:0.0592833 117:0.0734817 118:0.12536 119:0.17736 120:0.227884 121:0.336889 122:0.528152 123:0.727224 124:0.879559 125:0.9027 126:0.747308 127:0.464593 128:0.234029 129:0.118057 130:0.0347262 131:-0.0332384 132:-0.115777 133:-0.183695 134:-0.237824 135:-0.317618 136:-0.397598 137:-0.618565 138:-0.68858 139:-0.702621 140:-0.683487 141:-0.699456 142:-0.710553 143:-0.592213 144:-0.329521 145:-0.281924 146:-0.435455 147:-0.688428 148:-0.662804 149:-0.630913 150:-0.545187 151:-0.48746 152:-0.203498 153:0.0376391 154:-0.165496 155:-0.000998847 156:0.110158 157:0.115447 158:0.0317469 159:-0.080742 160:-0.193762 161:-0.298879 162:-0.260195 163:-0.172473 164:-0.0743883 165:-0.0614897 166:-0.0548298 167:0.182667 168:0.25437 169:0.221905 170:0.134476 171:0.128188 172:0.0295259 173:-0.14273 174:-0.130902 175:-0.0378186 176:-0.0159554 177:-0.0520905 178:-0.113315 179:-0.236059 180:-0.332393 181:-0.505577 182:-0.743104 183:-0.889828 184:-1 185:-0.923365 186:-0.718956 187:-0.536335 188:-0.350765 189:-0.112086 190:0.113685 191:0.201302 192:0.246704 193:0.271966 194:0.179176 195:-0.0811643 196:-0.18997 197:-0.0413177 198:0.147344 199:0.162641 200:0.187201 201:0.133629 202:0.0789035 203:0.0275433 204:-0.0192144 205:-0.0648188 206:-0.0785144 207:-0.0478562 208:0.0718814 209:0.193182 210:0.0132145 211:0.0163046 212:0.223672 213:0.179112 214:0.100979 215:0.064398 216:0.0440463 217:-0.0119371 218:-0.0487489 219:-0.005541 220:0.286402 221:0.437337 222:0.439389 223:0.280758 224:0.123154 225:0.0115993 226:-0.0940273 227:-0.176991 228:-0.0829344 229:0.0342638 230:0.0758977 231:-0.000241927 232:-0.0428228 233:-0.0512181 234:-0.0280345 235:0.00432498 236:0.0248742 237:0.128259 238:0.226304 239:0.121517 240:0.102469 241:0.123135 242:0.130185 243:0.226659 244:0.320683 245:0.155869 246:0.0691416 247:0.0360038 248:-0.172183 249:-0.305783 250:-0.180013 251:-0.137153 252:-0.227747 253:-0.210985 254:-0.300671 255:-0.445087 
